tree
version=v4
num_class=1
num_tree_per_iteration=1
label_index=0
max_feature_idx=20
objective=regression
feature_names=month day_of_year week_of_year day_of_week hour weighted_day_of_year year is_month_start is_month_end sin_hour cos_hour sin_day cos_day sin_week cos_week sin_month cos_month is_day day_duration night_duration is_holiday
feature_infos=[1:12] [1:365] [1:52] [0:6] [0:23] [100:36500] none [0:1] [0:1] [-1:1] [-1:1] [-0.9999994220246925:0.99998555065071859] [-0.99997919295908233:0.9999907524084426] [-0.97492791218182362:0.97492791218182362] [-0.90096886790241903:1] [-1:1] [-1:1] [0:1] [-6:6] [0:23] none
tree_sizes=2681 2744 2712 2743 2712 2725 2739 2727 2696 2720 2732 2746 2676 2700 2717 2707 2700 2724 2711 2716 2732 2709 2693 2730 2730 2717 2697 2718 2719 2732 2722 2697 2712 2721 2740 2700 2714 2761 2739 2712 2713 2700 2728 2700 2730 2736 2691 2722 2697 2740 2720 2738 2704 2699 2741 2688 2744 2732 2705 2711 2703 2758 2715 2754 2739 2724 2724 2716 2737 2702 2714 2706 2741 2726 2750 2730 2707 2767 2750 2698 2735 2705 2708 2758 2740 2716 2731 2701 2709 2712 2751 2736 2715 2730 2724 2715 2728 2707 2711 2718

Tree=0
num_leaves=31
num_cat=0
split_feature=1 10 12 16 3 12 11 12 12 12 12 4 12 12 19 1 14 2 11 11 9 11 15 1 11 13 18 13 18 11
split_gain=5800.94 4876.99 5175.59 4409.21 5850.02 5391.92 5353.27 4586.12 7058.83 4332.94 4476.47 4131.96 4665.01 3759.52 3536.23 4965.5 3442.42 3151.27 3022.66 4495.14 6784.3 6129.54 4840.87 4420.13 6914.88 6729.12 5724.33 6363.18 5334.61 5286.09
threshold=359.50000000000006 -0.9159756150367534 0.96407344085605606 -0.24999999999999994 3.5000000000000004 0.86004965528756494 -0.98664820696349753 0.38043945030393422 0.86004965528756494 0.5475998096715059 0.11478523713130605 11.500000000000002 -0.6652727025667432 -0.99465740988130902 1.5000000000000002 362.50000000000006 -0.22252093395631442 1.5000000000000002 0.99761913169647187 0.80417553764032002 0.98296291314453421 0.48314048284850658 0.93301270189221952 246.50000000000003 -0.63255557784149707 0.87837969732492682 1.5000000000000002 1.0000000180025095e-35 -4.4999999999999991 -0.13398594226331254
decision_type=2 2 2 2 2 2 2 2 2 2 2 2 2 2 2 2 2 2 2 2 2 2 2 2 2 2 2 2 2 2
left_child=1 2 3 11 6 9 -5 -8 -9 10 -6 12 -1 -13 -2 -16 -4 -3 19 21 22 23 -21 24 25 -19 27 29 -25 -26
right_child=14 17 16 4 5 -7 7 8 -10 -11 -12 13 -14 -15 15 -17 -18 18 -20 20 -22 -23 -24 28 26 -27 -28 -29 -30 -31
leaf_value=48.774714842210358 48.092463773492888 49.79460259032696 51.395155294789475 50.412546577627801 49.096671955801249 50.916749491468408 48.203045780074973 49.559130432992802 48.098948058064124 48.759381057919718 50.464156893301677 48.663892330162213 50.105916142414351 50.05991403779214 48.218870692210558 50.368654241168414 49.828971683971098 48.615779260126253 49.736919796675821 48.847976149389886 50.186623694733498 49.551367955794937 49.279245746769625 48.871416149060273 49.546389124637457 49.845965179554433 48.895179233600416 49.622503368760306 49.417512961147544 48.94830302645606
leaf_weight=77 63 118 23 23 43 30 81 112 47 57 54 21 40 237 22 21 36 347 137 625 53 830 446 200 222 51 363 493 1694 442
leaf_count=77 63 118 23 23 43 30 81 112 47 57 54 21 40 237 22 21 36 347 137 625 53 830 446 200 222 51 363 493 1694 442
internal_value=49.3038 49.3151 49.5348 49.4699 49.2578 49.6903 48.9552 48.8155 49.1275 49.4513 49.858 49.7227 49.2298 49.9463 48.5696 49.2688 50.4395 49.2829 49.2727 49.2617 49.0822 49.3051 49.0276 49.2515 49.1445 48.7734 49.2416 49.3503 49.3598 49.1483
internal_weight=0 6902 881 822 447 184 263 240 159 154 97 375 117 258 106 43 59 6021 5903 5766 1124 4642 1071 3812 1918 398 1520 1157 1894 664
internal_count=7008 6902 881 822 447 184 263 240 159 154 97 375 117 258 106 43 59 6021 5903 5766 1124 4642 1071 3812 1918 398 1520 1157 1894 664
is_linear=0
shrinkage=1


Tree=1
num_leaves=31
num_cat=0
split_feature=1 10 12 16 3 12 11 12 12 12 1 4 11 12 19 1 1 14 2 19 10 11 11 9 11 15 11 1 11 13
split_gain=4698.76 3950.36 4192.23 3571.46 4738.52 4367.45 4336.15 3813.56 9801.77 3509.68 3875.44 3346.89 3802.47 3045.21 2864.34 4022.06 2840.45 2788.36 2552.53 2651.27 2774.9 2448.35 3641.06 5495.29 4964.93 3921.1 3909.79 3580.3 5601.05 5450.58
threshold=359.50000000000006 -0.9159756150367534 0.96407344085605606 -0.24999999999999994 3.5000000000000004 0.86004965528756494 -0.98664820696349753 0.48877522411129348 0.67644692717078936 0.5475998096715059 286.50000000000006 11.500000000000002 0.74443451080969758 -0.99465740988130902 1.5000000000000002 362.50000000000006 361.50000000000006 -0.22252093395631442 1.5000000000000002 1.5000000000000002 0.60355339059327384 0.99761913169647187 0.80417553764032002 0.98296291314453421 0.48314048284850658 0.93301270189221952 0.93544191479114935 246.50000000000003 -0.63255557784149707 0.87837969732492682
decision_type=2 2 2 2 2 2 2 2 2 2 2 2 2 2 2 2 2 2 2 2 2 2 2 2 2 2 2 2 2 2
left_child=1 2 3 11 6 9 -5 -8 -9 10 -6 12 -1 -13 16 -16 -2 -4 19 -3 -21 22 24 25 27 -24 -25 28 29 -20
right_child=14 18 17 4 5 -7 7 8 -10 -11 -12 13 -14 -15 15 -17 -18 -19 21 20 -22 -23 23 26 -26 -27 -28 -29 -30 -31
leaf_value=-0.40884454778807111 -0.23424643178780877 0.042278896207394806 1.8822235309559368 0.99787576302238135 0.16648147131659485 1.451658430049817 -0.90312588512897496 1.2704027069242378 -0.6162845049500465 -0.48997315021983368 1.7012033383051557 -0.57591301146007723 0.88295678477133477 0.68050651946399787 -0.97643256187438965 0.95837273370651976 -1.6169387346658952 0.47265837275319633 -0.61921485242479479 0.17053972482681276 1.6835027262016578 0.38981170282311683 -0.41023764739990237 1.6697991994711068 0.22281496312603896 -0.022095014669435444 -0.048291988284499564 0.05044607131760627 -0.055940338087905397 0.48795250478912805
leaf_weight=86 24 69 23 23 76 30 102 38 100 57 21 21 31 237 22 21 39 36 347 22 27 137 625 26 830 446 27 1894 1520 51
leaf_count=86 24 69 23 23 76 30 102 38 100 57 21 21 31 237 22 21 39 36 347 22 27 137 625 26 830 446 27 1894 1520 51
internal_value=0 0.0101475 0.207925 0.149483 -0.0414356 0.347821 -0.313767 -0.439467 -0.0967619 0.132788 0.498741 0.377058 -0.0665724 0.57824 -0.660738 -0.0315277 -1.0902 1.02215 -0.0187916 0.441726 1.00421 -0.0279973 -0.0379244 -0.199415 0.00117837 -0.248602 0.794545 -0.0470793 -0.143384 -0.477342
internal_weight=0 6902 881 822 447 184 263 240 138 154 97 375 117 258 106 43 63 59 6021 118 49 5903 5766 1124 4642 1071 53 3812 1918 398
internal_count=7008 6902 881 822 447 184 263 240 138 154 97 375 117 258 106 43 63 59 6021 118 49 5903 5766 1124 4642 1071 53 3812 1918 398
is_linear=0
shrinkage=0.1


Tree=2
num_leaves=31
num_cat=0
split_feature=1 10 12 16 3 11 11 12 11 12 12 12 4 12 12 19 1 4 12 11 14 2 18 12 1 10 1 14 12 10
split_gain=3806 3199.79 3395.7 2892.88 3838.2 3538.28 5190.68 3548.66 4593.44 3537.64 2842.84 3282.79 2710.98 3173.53 2466.62 2320.12 3257.86 2673.18 2300.26 2262.69 2258.57 2067.55 2159.13 2148.64 5310.75 5303.87 5373.86 5199.01 3137.61 3407.39
threshold=359.50000000000006 -0.9159756150367534 0.96407344085605606 -0.24999999999999994 3.5000000000000004 -0.96463499255812291 -0.9259986516102553 0.88917497572200743 0.94425825643485939 0.86004965528756494 0.5475998096715059 0.11478523713130605 11.500000000000002 -0.6652727025667432 -0.99465740988130902 1.5000000000000002 362.50000000000006 11.500000000000002 0.67644692717078936 0.78325454425165997 -0.22252093395631442 1.5000000000000002 2.5000000000000004 0.91159213926341531 328.50000000000006 -0.37940952255126015 335.50000000000006 1.0000000180025095e-35 0.93769647993491489 -0.5
decision_type=2 2 2 2 2 2 2 2 2 2 2 2 2 2 2 2 2 2 2 2 2 2 2 2 2 2 2 2 2 2
left_child=1 2 3 12 5 -5 -7 8 19 10 11 -6 13 -1 -14 17 -17 -2 -12 -8 -4 22 -3 24 -23 -26 27 -27 -25 -30
right_child=15 21 20 4 9 6 7 -9 -10 -11 18 -13 14 -15 -16 16 -18 -19 -20 -21 -22 23 -24 28 25 26 -28 -29 29 -31
leaf_value=-0.43528834743933242 -1.5827731027322658 0.59658530925967035 1.6940013035483983 0.58365410208702095 -0.20305950031724085 -1.8604267151459404 0.014526433852112408 -1.09112345994938 -1.1268669372424485 1.3064925169944763 -1.1346330947600878 0.96799330976274289 -0.51832173211233956 0.66267826780676842 0.61245578966311776 -0.87878928536718548 0.86253543127150767 -0.27586154331421031 0.14080110903709167 1.1115479179050611 0.42539251065916484 -0.024971402615027248 -0.52178333373296837 -0.61715138541891224 1.2848707449436187 1.2998897875730808 -0.56804853758569496 -0.29037125320995555 -0.5490475720944612 0.079718458362270234
leaf_weight=77 34 97 23 40 43 23 103 42 32 30 26 54 21 40 237 22 21 29 31 23 36 5098 21 141 60 52 59 34 115 344
leaf_count=77 34 97 23 40 43 23 103 42 32 30 26 54 21 40 237 22 21 29 31 23 36 5098 21 141 60 52 59 34 115 344
internal_value=0 0.00913276 0.187133 0.134535 -0.037292 -0.282391 -0.437735 -0.274126 -0.0569488 0.313039 0.119509 0.448867 0.339353 -0.0599151 0.520416 -0.594664 -0.0283749 -0.981179 -0.440976 0.214776 0.919935 -0.0169124 0.397554 -0.0251975 -0.00490386 0.494142 0.166943 0.671182 -0.204559 -0.0778155
internal_weight=0 6902 881 822 447 263 223 200 158 184 154 97 375 117 258 106 43 63 57 126 59 6021 118 5903 5303 205 145 86 600 459
internal_count=7008 6902 881 822 447 263 223 200 158 184 154 97 375 117 258 106 43 63 57 126 59 6021 118 5903 5303 205 145 86 600 459
is_linear=0
shrinkage=0.1


Tree=3
num_leaves=31
num_cat=0
split_feature=1 10 4 9 11 18 3 15 15 14 14 1 1 18 14 4 1 9 3 4 14 4 11 3 11 18 1 2 12 12
split_gain=3100.79 6387.66 2950.68 2630.5 3956.21 4054.84 4610.48 3108.33 3101.5 6450.28 5496.84 6394.79 4947.45 5363.01 6406.25 4802.65 4392.26 4607.14 4974.68 4138.77 3316.45 3182.57 3427.63 4723.62 3903.91 2917.65 2871.24 2698.21 3378.99 2637.05
threshold=357.50000000000006 0.91597561503675351 4.5000000000000009 -0.37940952255126059 -0.95500086777008153 1.5000000000000002 2.5000000000000004 -0.6830127018922193 -0.6830127018922193 -0.22252093395631442 1.0000000180025095e-35 128.50000000000003 96.500000000000014 -4.4999999999999991 -0.56174490092936669 20.500000000000004 138.50000000000003 -0.98296291314453399 3.5000000000000004 20.500000000000004 -0.56174490092936669 21.500000000000004 0.89017062131308955 5.5000000000000009 0.15951094710994371 -1.0000000180025095e-35 80.500000000000014 6.5000000000000009 0.41202506375868281 -0.97507822412530132
decision_type=2 2 2 2 2 2 2 2 2 2 2 2 2 2 2 2 2 2 2 2 2 2 2 2 2 2 2 2 2 2
left_child=3 2 -2 8 5 -5 -7 -6 9 -1 11 12 13 14 -10 26 20 18 -18 -11 -13 27 23 24 -23 -9 -15 -12 29 -29
right_child=1 -3 -4 4 7 6 -8 25 10 19 21 16 -14 15 -16 -17 17 -19 -20 -21 -22 22 -24 -25 -26 -27 -28 28 -30 -31
leaf_value=-0.61563032702395803 0.92012742236256606 -2.1183337271213531 -0.4072064508512182 0.13926536098430706 -0.16483449104721148 1.5737011862993242 0.33728013775850596 0.42036580448800875 1.6657066013754869 0.18586913621828161 0.31713169728760171 0.45689706802368169 -0.63757294420842781 -0.57323350298125841 -0.053352547404558762 0.48110038242983011 0.34040413768060751 0.38829264848141887 -1.4817217843285924 -0.62421153500676163 2.193260699239644 -2.6433524207635362 0.37090576943897069 0.029501792311668398 -0.8168608863353729 0.042926102572106592 0.36789357364177705 -0.60158198199101864 -0.53755386229955926 0.073985217315822929
leaf_weight=285 20 20 103 266 692 50 76 220 41 298 113 22 135 171 46 89 31 488 29 80 22 22 21 25 25 2965 40 70 212 331
leaf_count=285 20 20 103 266 692 50 76 220 41 298 113 22 135 171 46 89 31 488 29 80 22 22 21 25 25 2965 40 70 212 331
internal_value=0 -0.460884 -0.19138 0.00960035 0.0578716 0.36062 0.827923 0.027261 -0.0697794 -0.256414 -0.00576557 0.138825 -0.116325 0.0655052 0.756779 -0.134964 0.363806 0.286623 -0.54029 0.0144235 1.32508 -0.202437 -0.753212 -1.08108 -1.67181 0.0689973 -0.394821 -0.131883 -0.214654 -0.0439442
internal_weight=0 143 123 6865 4269 392 126 3877 2596 663 1933 1114 522 387 87 300 592 548 60 378 44 819 93 72 47 3185 211 726 613 401
internal_count=7008 143 123 6865 4269 392 126 3877 2596 663 1933 1114 522 387 87 300 592 548 60 378 44 819 93 72 47 3185 211 726 613 401
is_linear=0
shrinkage=0.1


Tree=4
num_leaves=31
num_cat=0
split_feature=1 10 3 12 0 12 12 11 1 4 1 1 0 4 12 11 11 1 12 3 12 9 12 12 0 0 4 4 1 1
split_gain=2574.09 2265.15 2835.4 4287.38 4238.04 3598.45 3878.58 2342.51 2802.48 2184.89 2102.56 3539.76 2452.7 2149.01 4365.68 2167.7 2395.81 2162.58 1879.74 4609.4 2661.03 2758.94 2276.5 2135.99 3933.13 2043.99 2028.74 1967.16 2444.56 4979.33
threshold=359.50000000000006 -0.9159756150367534 2.5000000000000004 0.91159213926341531 2.5000000000000004 -0.80417042486635371 -0.92272482904738262 0.35846314187849709 179.50000000000003 12.500000000000002 58.500000000000007 84.500000000000014 1.5000000000000002 11.500000000000002 -0.19337245081799007 -0.61913973745509387 -0.108376950152639 296.50000000000006 -0.99938741687870725 4.5000000000000009 -0.99628250747696534 0.37940952255126054 -0.98801846520836312 -0.98212955754013376 6.5000000000000009 6.5000000000000009 15.500000000000002 8.5000000000000018 10.500000000000002 16.500000000000004
decision_type=2 2 2 2 2 2 2 2 2 2 2 2 2 2 2 2 2 2 2 2 2 2 2 2 2 2 2 2 2 2
left_child=1 2 5 4 -4 6 -1 8 -6 -9 12 -12 -7 14 -13 -15 -17 -16 19 -3 21 26 -22 24 -24 -23 -20 -25 -29 -30
right_child=-2 18 3 -5 7 10 -8 9 -10 -11 11 13 -14 15 17 16 -18 -19 20 -21 22 25 23 27 -26 -27 -28 28 29 -31
leaf_value=-0.021722837370269154 -0.48904598261106691 -1.4290688514709473 -0.66571900479647583 1.1399623314733618 -0.94461802753873847 -0.25347992185805296 1.3807306921843328 0.35352542338139836 0.23863717014859387 1.1664498500964222 -1.4685188026428224 -1.7262879309654235 0.96325994173685714 0.36826558159543321 0.69453644752502441 -1.2105586397151153 0.021951654812564021 -0.75842222145625526 1.7756236582994462 0.26907366062655597 -0.4142477714952002 0.57667501189491965 1.2845994826725553 0.053935014525639646 -0.26217200986800659 -0.80260468891688763 0.51947588639126885 0.43998025540382635 -1.0147590168884821 -0.063260639808662797
leaf_weight=49 106 31 49 56 22 37 33 94 222 51 25 25 30 77 20 24 46 21 20 33 141 22 35 2425 31 21 36 93 56 3077
leaf_count=49 106 31 49 56 22 37 33 94 222 51 25 25 30 77 20 24 46 21 20 33 141 22 35 2425 31 21 36 93 56 3077
internal_value=0 0.00751071 0.157275 0.31606 0.210721 -0.0454128 0.542679 0.321121 0.13195 0.639451 -0.203523 -0.34283 0.291329 -0.210707 -0.684748 0.00212802 -0.400623 -0.0496619 -0.0144029 -0.553464 -0.00861146 0.505513 -0.0173001 -0.0075101 0.558086 -0.0969267 0.9681 -0.0141159 -0.0652701 -0.080268
internal_weight=0 6902 881 494 438 387 82 389 244 145 305 238 67 213 66 147 70 41 6021 64 5957 99 5858 5717 66 43 56 5651 3226 3133
internal_count=7008 6902 881 494 438 387 82 389 244 145 305 238 67 213 66 147 70 41 6021 64 5957 99 5858 5717 66 43 56 5651 3226 3133
is_linear=0
shrinkage=0.1


Tree=5
num_leaves=31
num_cat=0
split_feature=2 12 1 8 1 1 18 10 1 10 1 1 4 3 4 13 4 7 16 12 4 4 10 11 4 4 16 4 10 18
split_gain=2130.11 2952.95 3509.16 5200.48 2805.22 5665.76 2984.38 2774.7 3088.02 2533.1 8047.74 4441.49 3577.71 4490.08 3459.85 2515.03 5244.95 2462.63 2884.67 3075.73 5066.94 2497.38 2351.8 2223.49 2208.46 2530.75 2052.14 3741.26 5090.53 3949.24
threshold=2.5000000000000004 0.91159213926341531 328.50000000000006 1.0000000180025095e-35 322.50000000000006 321.50000000000006 1.5000000000000002 -0.37940952255126015 331.50000000000006 0.91597561503675351 341.50000000000006 341.50000000000006 10.500000000000002 1.5000000000000002 3.5000000000000004 1.0000000180025095e-35 14.500000000000002 1.0000000180025095e-35 -0.9330127018922193 1.0000000180025095e-35 16.500000000000004 8.5000000000000018 -0.9159756150367534 0.3261394409934788 3.5000000000000004 1.5000000000000002 -0.68301270189221952 22.500000000000004 0.78656609248549303 1.0000000180025095e-35
decision_type=2 2 2 2 2 2 2 2 2 2 2 2 2 2 2 2 2 2 2 2 2 2 2 2 2 2 2 2 2 2
left_child=24 2 4 7 5 17 15 22 -9 11 -11 12 -3 -14 -13 16 -6 26 -19 21 -21 -20 -4 -15 25 -1 27 28 29 -2
right_child=1 9 3 -5 6 -7 -8 8 -10 10 -12 14 13 23 -16 -17 -18 18 19 20 -22 -23 -24 -25 -26 -27 -28 -29 -30 -31
leaf_value=0.15113563971085983 0.24489175340506109 -1.0457527710497379 -0.060780216146398475 1.9329077567160131 -2.3044164141019183 1.6075516093860973 0.41490497248513364 0.76810923167637424 -0.32763020393232212 0.74932648563385018 -1.4145409885319797 0.93277296684682376 -1.0081229406595231 -0.18920804136677793 -0.047705477391418935 -0.25022289208743886 -0.11173054561018946 1.434012147513303 -1.0968265980482101 1.1164521895471167 -0.55072104426530699 0.14020984435782713 1.0787976838241924 0.95201304497257366 0.14753432280015807 1.6513565594735355 -0.053166681247888217 0.81114402328854185 -0.33221365748598503 -0.12377123831996423
leaf_weight=22 933 80 27 20 24 22 28 35 97 25 55 40 40 38 359 46 20 22 24 61 26 51 55 31 215 23 3811 67 289 422
leaf_count=22 933 80 27 20 24 22 28 35 97 25 55 40 40 38 359 46 20 22 24 61 26 51 55 31 215 23 3811 67 289 422
internal_value=0 -0.0108219 0.011105 0.390832 -0.00409446 0.005848 -0.486725 0.246713 -0.0370932 -0.210396 -0.738332 -0.138568 -0.537898 -0.16516 0.0505881 -0.767232 -1.30774 -0.000327516 0.359565 0.213652 0.618217 -0.255642 0.703571 0.323514 0.280869 0.917915 -0.0123196 0.0786613 0.0488095 0.130076
internal_weight=0 6748 6080 234 5846 5728 118 214 132 668 80 588 189 109 399 90 44 5706 184 162 87 75 82 69 260 45 5522 1711 1644 1355
internal_count=7008 6748 6080 234 5846 5728 118 214 132 668 80 588 189 109 399 90 44 5706 184 162 87 75 82 69 260 45 5522 1711 1644 1355
is_linear=0
shrinkage=0.1


Tree=6
num_leaves=31
num_cat=0
split_feature=1 10 10 4 11 18 3 12 3 1 4 1 1 18 3 12 4 15 14 14 11 12 1 1 1 1 12 4 1 11
split_gain=1961.12 4313.46 2204.24 2005.11 2792.63 3537.92 3783.12 2722.04 3381.6 2731.12 2591.02 2221.38 10067.4 3511.14 2240.35 2077.19 7472.3 2082.57 4700.51 4396.83 5161.73 3872.25 2462.5 2365.68 2671.83 3068.18 2337.41 2198.96 5142.92 4311.12
threshold=357.50000000000006 0.91597561503675351 0.60355339059327384 13.500000000000002 -0.95500086777008153 1.5000000000000002 2.5000000000000004 -0.8611288361322974 1.0000000180025095e-35 189.50000000000003 8.5000000000000018 46.500000000000007 50.500000000000007 -4.4999999999999991 1.5000000000000002 -0.82413948779581736 18.500000000000004 -0.6830127018922193 -0.22252093395631442 1.0000000180025095e-35 0.81428061195174062 -0.099822328936730861 335.50000000000006 328.50000000000006 318.50000000000006 312.50000000000006 0.33222858587828868 20.500000000000004 271.50000000000006 -0.98046803196378884
decision_type=2 2 2 2 2 2 2 2 2 2 2 2 2 2 2 2 2 2 2 2 2 2 2 2 2 2 2 2 2 2
left_child=3 2 -2 4 5 -1 10 8 9 -5 -7 13 -13 14 -9 16 -14 18 27 20 22 -22 23 24 25 -19 -21 29 -29 -17
right_child=1 -3 -4 7 -6 6 -8 11 -10 -11 -12 12 15 -15 -16 17 -18 19 -20 26 21 -23 -24 -25 -26 -27 -28 28 -30 -31
leaf_value=0.09218109432330801 -0.35349437709182802 -1.7285442113876344 0.71472183081010987 -1.0438340586156418 0.026803444025477408 0.80859912099509401 0.30117454354308154 -0.06260291879827326 0.26389392207206136 0.1823617704650935 2.2671167441776823 -2.1356572432518006 0.52024486144383753 -0.024766736260631628 1.1601030435967954 0.037680251068539089 -1.5909543758944462 0.4530664953661252 -0.015634405367057912 -0.035749740803483802 -0.54724262873051877 0.14074643716563526 -0.016123483497817236 1.3220587684827692 -0.16840697573988062 1.6213546973008377 -0.46698821997497142 0.47640160962387368 -1.1081661560318687 -1.0071298695340449
leaf_weight=242 99 20 24 39 3628 29 76 22 426 34 21 25 30 285 47 54 38 166 403 257 142 193 111 34 57 26 246 54 33 147
leaf_count=242 99 20 24 39 3628 29 76 22 426 34 21 25 30 285 47 54 38 166 403 257 142 193 111 34 57 26 246 54 33 147
internal_value=0 -0.366528 -0.145062 0.00763488 0.0534281 0.315913 0.74562 -0.0561469 0.156131 -0.472729 1.42118 -0.100842 -0.141411 0.130195 0.770255 -0.11637 -0.659543 -0.0971626 -0.236118 -0.0192255 0.137697 -0.150879 0.383059 0.539629 0.432791 0.611272 -0.246654 -0.544643 -0.124641 -0.726435
internal_weight=0 143 123 6865 3996 368 126 2869 499 73 50 2370 2016 354 69 1991 68 1923 691 1232 729 335 394 283 249 192 503 288 87 201
internal_count=7008 143 123 6865 3996 368 126 2869 499 73 50 2370 2016 354 69 1991 68 1923 691 1232 729 335 394 283 249 192 503 288 87 201
is_linear=0
shrinkage=0.1


Tree=7
num_leaves=31
num_cat=0
split_feature=1 10 12 16 12 12 3 12 4 12 12 12 11 11 9 3 4 11 11 10 4 3 12 11 4 3 11 11 18 1
split_gain=1641.58 1744.84 2547.14 2044.42 3326.28 3618.56 3450.79 3524.98 2842.39 2461.49 1701.34 4323.37 1646.13 2706.95 4229.73 3245.03 6729.27 3172.74 3160.48 2804.39 3291.75 4271.09 4044.49 3459.56 2448.82 9646.23 3246.3 4509.12 3281.18 3209.62
threshold=359.50000000000006 -0.9159756150367534 0.96407344085605606 -0.5 -0.28519997588938989 -0.35042475891464198 1.5000000000000002 0.88917497572200743 11.500000000000002 -0.99465740988130902 0.1318557721318592 0.53312596302726967 0.99761913169647187 0.80417553764032002 0.98296291314453421 5.5000000000000009 20.500000000000004 0.93544191479114935 0.48314048284850658 -0.78656609248549325 19.500000000000004 3.5000000000000004 0.48877522411129348 0.85226249403558707 3.5000000000000004 2.5000000000000004 0.71503381463111937 0.72695311118111527 -4.4999999999999991 44.500000000000007
decision_type=2 2 2 2 2 2 2 2 2 2 2 2 2 2 2 2 2 2 2 2 2 2 2 2 2 2 2 2 2 2
left_child=1 2 3 8 5 -5 7 10 -1 -10 -6 -12 13 18 15 19 -17 -16 -3 -15 21 23 -22 -21 25 29 28 -28 -26 -20
right_child=-2 12 -4 4 6 -7 -8 -9 9 -11 11 -13 -14 14 17 16 -18 -19 24 20 22 -23 -24 -25 26 -27 27 -29 -30 -31
leaf_value=-0.16015904092408242 -0.39054315491175318 -0.025700695262629414 0.77211097107600368 -0.16963101741744252 0.47811541035771371 -1.7838482470739458 0.24326141725294292 -1.5501758850756147 -0.52639364628564744 0.61452169512447563 -1.1077354495118303 0.3444899678230286 0.32943325348769448 0.26622798470563669 1.4996830087441664 0.4804760338398662 -1.3347513020038606 -0.048015428582827258 -1.3145601424303921 -1.531714040805132 0.19601256966414538 -0.092668420182807118 -1.2454179482026535 -0.54147734530874203 0.97650299093940041 1.2270492150233343 -1.4565007741634663 -0.048654776311141783 0.15260228790660252 0.11459593447771939
leaf_weight=94 106 3930 59 41 32 21 320 21 21 190 41 41 137 86 26 137 24 27 22 39 169 224 22 370 55 91 26 182 399 55
leaf_count=94 106 3930 59 41 32 21 320 21 21 190 41 41 137 86 26 137 24 27 22 39 169 224 22 370 55 91 26 182 399 55
internal_value=0 0.00599791 0.137441 0.0918866 -0.0292439 -0.716382 0.0643881 -0.359608 0.297213 0.500971 -0.140293 -0.381623 -0.013235 -0.0212135 -0.160794 -0.203947 0.209883 0.711233 0.0117462 -0.277163 -0.333877 -0.443667 0.0299839 -0.635901 0.189055 0.530023 0.102525 -0.224636 0.252414 -0.293734
internal_weight=0 6902 881 822 517 62 455 135 305 211 114 82 6021 5884 1124 1071 161 53 4760 910 824 633 191 409 830 168 662 208 454 77
internal_count=7008 6902 881 822 517 62 455 135 305 211 114 82 6021 5884 1124 1071 161 53 4760 910 824 633 191 409 830 168 662 208 454 77
is_linear=0
shrinkage=0.1


Tree=8
num_leaves=31
num_cat=0
split_feature=2 1 9 3 1 4 12 1 18 3 3 19 1 4 19 9 1 4 16 12 12 16 1 14 12 13 13 11 11 18
split_gain=1540.89 2021.72 5090.2 5356.32 2146.54 2072.11 4021.64 4501.05 1937.68 4193.29 3680.24 2783.4 2669.85 2597.7 2492.19 1807.19 1756.87 1520.27 5116.6 3844.2 7491.35 2513.77 2331.87 2197.4 2168.26 1966.01 1841.55 1764.1 1418.41 5723.32
threshold=2.5000000000000004 24.500000000000004 0.25881904510252091 1.5000000000000002 18.500000000000004 21.500000000000004 0.89309379682046119 322.50000000000006 1.0000000180025095e-35 3.5000000000000004 4.5000000000000009 1.0000000180025095e-35 8.5000000000000018 13.500000000000002 1.0000000180025095e-35 -0.37940952255126059 350.50000000000006 22.500000000000004 -0.68301270189221952 -0.29342786347392819 -0.039769286347669845 -0.9330127018922193 293.50000000000006 -0.56174490092936669 -0.49812626372919411 1.0000000180025095e-35 1.0000000180025095e-35 0.69056404122701587 -0.99815974739704505 1.0000000180025095e-35
decision_type=2 2 2 2 2 2 2 2 2 2 2 2 2 2 2 2 2 2 2 2 2 2 2 2 2 2 2 2 2 2
left_child=8 2 3 -2 -4 28 7 17 10 -10 11 13 -13 -1 -12 -5 -8 23 21 25 -21 -19 27 24 -7 -20 -23 -22 29 -3
right_child=1 5 4 15 -6 6 16 -9 9 -11 14 12 -14 -15 -16 -17 -18 18 19 20 22 26 -24 -25 -26 -27 -28 -29 -30 -31
leaf_value=1.9671225442240639 -0.70232193076864213 -0.054107916872291009 -0.3330990871361324 0.32183909582537273 -1.3675108286294533 -0.60015943279633166 -1.6229895697190213 1.1771871660764401 -0.93031817163164554 0.70870353115929507 -1.0964945772419805 0.82682274243770504 -0.35899221494391159 0.6629454343091874 0.27736661664901247 1.436166600747542 -0.37633154630661014 -0.10620265503724416 -0.45495914840698248 1.6259412055430205 -1.2867351581310404 0.60135195633539795 0.43236019515991214 -0.54017278507265742 0.55167940475723964 -1.7511242157779634 1.877700333595276 -0.25109622031450274 0.010391704211095521 1.5524740751584372
leaf_weight=24 47 85 35 43 47 26 26 26 37 27 23 39 37 42 31 22 20 24 25 23 29 26 25 173 44 22 20 38 5892 30
leaf_count=24 47 85 35 43 47 26 26 26 37 27 23 39 37 42 31 22 20 24 25 23 29 26 25 173 44 22 20 38 5892 30
internal_value=0 -0.00920425 -0.32735 0.110943 -0.925994 0.000212938 -0.18612 -0.103958 0.238886 -0.238856 0.394883 0.662099 0.249518 1.13719 -0.307796 0.698996 -1.08096 -0.174084 0.00900974 -0.299692 0.0117276 0.723433 -0.391826 -0.348889 0.123854 -1.06167 1.15629 -0.699358 0.0171805 0.365
internal_weight=0 6748 194 112 82 6554 547 501 260 64 196 142 76 66 54 65 46 475 232 162 115 70 92 243 70 47 46 67 6007 115
internal_count=7008 6748 194 112 82 6554 547 501 260 64 196 142 76 66 54 65 46 475 232 162 115 70 92 243 70 47 46 67 6007 115
is_linear=0
shrinkage=0.1


Tree=9
num_leaves=31
num_cat=0
split_feature=1 10 10 3 10 12 7 16 12 9 4 0 9 9 1 12 10 1 8 4 4 1 1 14 12 0 3 4 1 2
split_gain=1326.12 3414.79 1917.49 3134.34 1538.93 1395.57 1775.55 2225.47 1990.5 3433.56 2054.08 1800.65 2878.14 1746.8 1722.28 4111.21 2967.91 4420.2 3246.16 2847.72 2522.52 2488.79 3291.85 6229.68 3280.44 3240.77 4521.85 2893.48 3330.25 2586.21
threshold=357.50000000000006 0.91597561503675351 0.37940952255126048 2.5000000000000004 -0.70710678118654757 0.98486764554468398 1.0000000180025095e-35 -0.9330127018922193 1.0000000180025095e-35 -0.70710678118654735 8.5000000000000018 3.5000000000000004 0.37940952255126054 0.91597561503675362 112.50000000000001 -0.30164489695395946 0.78656609248549303 122.50000000000001 1.0000000180025095e-35 7.5000000000000009 3.5000000000000004 338.50000000000006 295.50000000000006 -0.56174490092936669 0.14888728888808328 10.500000000000002 1.5000000000000002 22.500000000000004 128.50000000000003 22.500000000000004
decision_type=2 2 2 2 2 2 2 2 2 2 2 2 2 2 2 2 2 2 2 2 2 2 2 2 2 2 2 2 2 2
left_child=5 2 3 -2 -5 6 14 -8 10 -10 -9 -11 -13 -7 15 19 20 -18 21 -1 -16 22 24 -24 27 -25 -27 28 -19 -30
right_child=1 -3 -4 4 -6 13 7 8 9 11 -12 12 -14 -15 16 -17 17 18 -20 -21 -22 -23 23 25 -26 26 -28 -29 29 -31
leaf_value=-1.8357848876998539 0.37327641827719554 -1.5132604533433915 0.50944145189391243 -1.4860344539989125 -0.38490423738956453 0.35732446997141354 1.2375428151085295 -0.98605286280314131 -0.53193292573646267 1.5932913374900819 0.13583337915878671 1.1617756333202125 -0.20160195777813594 -0.48705725244113379 0.43216542530868013 -0.063589090351415897 0.86711903441519977 -1.4405398569323802 -1.171554755140096 -0.40957078990482149 0.044937556669094075 -0.74103516184366669 -0.71271255182665449 1.7058090972900393 -0.96733164728856558 -0.38984960844883554 1.0467498219013214 0.32372174785200475 0.32785455144760089 -0.29196252745596019
leaf_weight=21 35 20 36 22 30 196 22 24 27 20 51 32 30 28 177 1860 42 22 32 42 3395 65 43 25 51 39 50 113 82 376
leaf_count=21 35 20 36 22 30 196 22 24 27 20 51 32 30 28 177 1860 42 22 32 42 3395 65 43 25 51 39 50 113 82 376
internal_value=0 -0.301402 -0.104352 -0.358336 -0.850767 0.0062783 -0.00200233 0.286993 0.17334 0.446169 -0.22317 0.768227 0.502077 0.251777 -0.0112538 -0.0904988 0.0225202 -0.13558 -0.182477 -0.884975 0.0641255 -0.145929 -0.0976369 0.312942 -0.197731 0.699812 0.417229 -0.131543 -0.23872 -0.180991
internal_weight=0 143 123 87 52 6865 6641 206 184 109 75 82 62 224 6435 1923 4512 940 898 63 3572 866 801 157 644 114 89 593 480 458
internal_count=7008 143 123 87 52 6865 6641 206 184 109 75 82 62 224 6435 1923 4512 940 898 63 3572 866 801 157 644 114 89 593 480 458
is_linear=0
shrinkage=0.1


Tree=10
num_leaves=31
num_cat=0
split_feature=4 11 19 12 13 12 4 12 9 11 1 4 4 4 3 11 1 1 4 12 4 9 11 4 15 14 14 15 1 18
split_gain=1317.6 2313.75 2678.1 2132.21 2944.73 5867.04 6720.1 3418.24 3635.33 2963.38 3754.92 2649.21 2471.86 2024.12 1963.64 2662.99 2444.83 3041.03 4050.03 1854.43 5871.99 1813.33 1745.14 1741.02 1660.11 3779.07 2618.51 3744.26 3073.67 2538.25
threshold=13.500000000000002 -0.95500086777008153 1.0000000180025095e-35 -0.8611288361322974 1.0000000180025095e-35 -0.97507822412530132 19.500000000000004 -0.93543596745397617 -0.60355339059327362 0.19337368024598436 164.50000000000003 20.500000000000004 17.500000000000004 1.5000000000000002 2.5000000000000004 -0.98930078251469888 283.50000000000006 277.50000000000006 7.5000000000000009 -0.82413948779581736 18.500000000000004 0.37940952255126054 -0.94975917145599731 15.500000000000002 -0.6830127018922193 -0.22252093395631442 1.0000000180025095e-35 0.68301270189221941 100.50000000000001 -4.4999999999999991
decision_type=2 2 2 2 2 2 2 2 2 2 2 2 2 2 2 2 2 2 2 2 2 2 2 2 2 2 2 2 2 2
left_child=1 2 14 4 5 6 -2 8 -7 23 -11 12 -9 -4 15 -1 17 18 -16 20 -5 -17 -3 -6 25 -21 27 -26 29 -29
right_child=3 22 13 19 9 7 -8 11 -10 10 -12 -13 -14 -15 16 21 -18 -19 -20 24 -22 -23 -24 -25 26 -27 -28 28 -30 -31
leaf_value=1.399904279275374 -1.3197894263716918 -0.85535866281260609 -0.83681392893195161 0.44105303128560386 1.3380054873804894 1.1712717501288754 0.25078421230427922 -0.009697495807300914 -0.38879979729652403 0.44245164975887391 -1.1324715577065945 0.66044363667888029 -1.2713357001543046 0.11914352383816018 1.2957869826416886 -0.24766057179524351 1.0370223004821069 -0.9025191201104058 -0.1910197808354531 -0.48206543483667907 -1.430468406018458 0.93338575179760275 0.018417227654155335 0.49281961248632067 0.25683066931637855 -0.0077330692095806813 -0.16911794205019573 0.56717179616292313 -0.61115794531427903 -0.12975632562580339
leaf_weight=44 63 23 28 30 31 59 48 44 20 41 24 31 24 106 28 26 30 27 53 288 38 26 3692 114 550 403 696 66 104 251
leaf_count=44 63 23 28 30 31 59 48 44 20 41 24 31 24 106 28 26 30 27 53 288 38 26 3692 114 550 403 696 66 104 251
internal_value=0 0.0367002 0.27588 -0.0512297 0.137026 -0.0700521 -0.640622 0.285753 0.776317 0.422004 -0.139058 -0.105707 -0.454982 -0.0806088 0.480023 0.82734 0.23841 0.0165738 0.322938 -0.0899516 -0.604797 0.342863 0.0130076 0.673515 -0.0751045 -0.205429 -0.0210829 0.0850267 -0.13942 0.0153454
internal_weight=0 4083 368 2925 499 289 111 178 79 210 65 99 68 134 234 96 138 108 81 2426 68 52 3715 145 2358 691 1667 971 421 317
internal_count=7008 4083 368 2925 499 289 111 178 79 210 65 99 68 134 234 96 138 108 81 2426 68 52 3715 145 2358 691 1667 971 421 317
is_linear=0
shrinkage=0.1


Tree=11
num_leaves=31
num_cat=0
split_feature=1 18 1 19 9 11 4 3 11 12 10 11 10 1 1 14 4 4 11 3 11 1 12 12 9 12 12 1 2 1
split_gain=1121.93 1513.73 2288.94 1550.04 1239.12 2072.02 2194.85 5241.01 2179.47 4451.74 5764.39 2661.41 5991.8 2210.93 3344.45 4387.34 2519.16 4719.25 2691.19 2546.58 2732.52 2077.5 1884.97 2882.3 2014.81 1967.84 3111.92 2296.56 1791.8 4945.08
threshold=359.50000000000006 1.0000000180025095e-35 363.50000000000006 2.5000000000000004 -0.37940952255126059 -0.95500086777008153 2.5000000000000004 4.5000000000000009 -0.63255557784149707 -0.67801649466304881 0.60355339059327384 -0.59869031648930193 0.25881904510252057 322.50000000000006 318.50000000000006 -0.56174490092936669 3.5000000000000004 4.5000000000000009 -0.93843426604005675 2.5000000000000004 -0.84772008488809492 255.50000000000003 -0.99938741687870725 -0.99628250747696534 -0.78656609248549303 -0.98801846520836312 -0.93543596745397617 164.50000000000003 6.5000000000000009 50.500000000000007
decision_type=2 2 2 2 2 2 2 2 2 2 2 2 2 2 2 2 2 2 2 2 2 2 2 2 2 2 2 2 2 2
left_child=4 2 3 -2 22 6 7 -6 9 10 -7 12 -10 14 16 -16 19 21 -19 20 -11 -18 -1 24 -24 -25 27 -27 -28 -30
right_child=1 -3 -4 -5 5 8 -8 -9 11 13 -12 -13 -14 -15 15 -17 17 18 -20 -21 -22 -23 23 25 -26 26 28 -29 29 -31
leaf_value=-0.89661831248265045 -0.038531767763197423 -1.0213753054539363 0.6356430153603907 -1.1147838965706203 0.30399598196933142 -0.18048897735656255 0.3769616674870635 -1.4843489313903062 -0.12825082330142751 1.2536877760073035 -1.7667434480455186 0.041821159578533829 1.9354534069697065 -0.79570497467711165 -0.1984988862817938 1.7565734704335529 -0.46871295883542019 -0.78648874312639239 0.0082892084499147766 -0.063665987329907942 0.031187332760203967 -1.8592549692500722 0.14382616082827251 -0.64100381684090413 1.5028380799293519 1.3700142335891723 0.15690077226105575 0.23303706687201495 -1.0886815421581268 -0.081565011607166088
leaf_weight=26 32 24 27 23 57 63 312 23 34 41 36 3017 24 37 22 24 21 48 379 101 33 22 24 56 20 20 296 159 50 1957
leaf_count=26 32 24 27 23 57 63 312 23 34 41 36 3017 24 37 22 24 21 48 379 101 33 22 24 56 20 20 296 159 50 1957
internal_value=0 -0.322865 -0.118423 -0.488601 0.00495852 0.0379796 0.257142 -0.210153 0.0159622 -0.12815 -0.757309 0.0547203 0.725696 -0.0425915 -0.0022656 0.821539 -0.0610175 -0.181609 -0.0810535 0.262858 0.708519 -1.18015 -0.0494098 -0.0408786 0.761559 -0.0547901 -0.0415637 0.360074 -0.0727808 -0.106655
internal_weight=0 106 82 55 6902 4294 392 80 3902 827 99 3075 58 728 691 46 645 470 427 175 74 43 2608 2582 44 2538 2482 179 2303 2007
internal_count=7008 106 82 55 6902 4294 392 80 3902 827 99 3075 58 728 691 46 645 470 427 175 74 43 2608 2582 44 2538 2482 179 2303 2007
is_linear=0
shrinkage=0.1


Tree=12
num_leaves=31
num_cat=0
split_feature=2 4 4 1 9 3 1 9 4 12 1 1 4 11 11 11 13 11 2 1 1 11 13 1 4 1 3 14 4 4
split_gain=955.339 1727.18 2181.66 1670.81 4113 4235.67 1725.33 1472.36 1423.65 2905.12 3447.6 1491.81 1290.57 1242.22 2339.7 1407.51 6482.29 6008.67 4336.74 1913.42 1928.73 1637.36 1458.19 1853.23 1138.32 3528.96 3080.55 2529.7 2511.23 1486.61
threshold=2.5000000000000004 3.5000000000000004 1.5000000000000002 24.500000000000004 0.25881904510252091 1.5000000000000002 18.500000000000004 -0.37940952255126059 21.500000000000004 0.89309379682046119 322.50000000000006 350.50000000000006 15.500000000000002 0.97875492728876534 0.93544191479114935 -0.46038400545438724 1.0000000180025095e-35 -0.75579217237767959 27.500000000000004 294.50000000000006 271.50000000000006 -0.91246704667116951 1.0000000180025095e-35 150.50000000000003 11.500000000000002 10.500000000000002 3.5000000000000004 -0.56174490092936669 7.5000000000000009 15.500000000000002
decision_type=2 2 2 2 2 2 2 2 2 2 2 2 2 2 2 2 2 2 2 2 2 2 2 2 2 2 2 2 2 2
left_child=1 2 -1 4 5 12 -6 -7 -5 10 13 -11 -2 14 15 16 17 19 22 20 -10 -18 -17 -24 26 29 28 -27 -3 -26
right_child=3 24 -4 8 6 7 -8 -9 9 11 -12 -13 -14 -15 -16 18 21 -19 -20 -21 -22 -23 23 -25 25 27 -28 -29 -30 -31
leaf_value=0.039535138823769314 -0.016839510202407839 -0.019620606489479542 1.432450784613257 0.015377769429116962 -0.3030400255748204 0.28001604357431104 -1.2304246684338185 1.2858303384347396 0.76143564243574402 -1.4131525901647715 1.0379382735261551 -0.26437964439392092 -1.0766868154207865 0.3960323377679556 -1.0025728319630478 -0.34685650018312164 -0.49430362780888876 -1.0680741881502085 1.2049191089613098 1.4612824654579164 -0.43844913584845407 -1.4568876454996509 0.56284807078978594 -0.47453170424470542 1.2414561791079386 0.38018957390671687 0.47130624249174791 -1.0954743254070098 -1.4662338505188623 0.34634372667832808
leaf_weight=22 20 24 23 6007 35 43 47 22 37 26 26 20 27 39 33 118 30 29 28 20 21 43 51 26 28 21 37 26 24 55
leaf_count=22 20 24 23 6007 35 43 47 22 37 26 26 20 27 39 33 118 30 29 28 20 21 43 51 26 28 21 37 26 24 55
internal_value=0 0.188097 0.75147 -0.00724737 -0.296468 0.0975145 -0.83459 0.620445 0.00131362 -0.153135 -0.0833039 -0.913686 -0.625688 -0.144677 -0.193043 -0.126754 -0.334767 0.160908 0.0411484 0.617838 0.326995 -1.06131 -0.125957 0.212564 0.0701821 0.256241 -0.214379 -0.436135 -0.742927 0.648309
internal_weight=0 260 45 6748 194 112 82 65 6554 547 501 46 47 475 436 403 180 107 223 78 58 73 195 77 215 130 85 47 48 83
internal_count=7008 260 45 6748 194 112 82 65 6554 547 501 46 47 475 436 403 180 107 223 78 58 73 195 77 215 130 85 47 48 83
is_linear=0
shrinkage=0.1


Tree=13
num_leaves=31
num_cat=0
split_feature=1 10 4 4 18 3 1 1 18 13 4 8 4 3 8 13 4 0 14 11 18 13 9 3 4 1 9 9 13 1
split_gain=908.023 2804.23 1577.06 1358.26 1992.61 1353.4 1055.38 5543.88 3677.98 3442.33 4649.51 3538.53 2230.66 2222.44 2210.31 4176.72 4021.91 2185.75 2103.11 2026.94 2532.85 3169.51 2401.79 1964.63 1775.23 1596.17 5109.2 1933.62 3849.05 1980.54
threshold=357.50000000000006 0.91597561503675351 4.5000000000000009 11.500000000000002 2.5000000000000004 3.5000000000000004 303.50000000000006 302.50000000000006 -4.4999999999999991 -0.8783796973249266 6.5000000000000009 1.0000000180025095e-35 19.500000000000004 3.5000000000000004 1.0000000180025095e-35 1.0000000180025095e-35 8.5000000000000018 11.500000000000002 1.0000000180025095e-35 -0.99815974739704505 1.0000000180025095e-35 1.0000000180025095e-35 -0.5 2.5000000000000004 21.500000000000004 310.50000000000006 0.78656609248549325 0.78656609248549325 0.87837969732492682 324.50000000000006
decision_type=2 2 2 2 2 2 2 2 2 2 2 2 2 2 2 2 2 2 2 2 2 2 2 2 2 2 2 2 2 2
left_child=6 2 -2 4 -4 -5 7 14 23 10 17 12 25 24 19 16 -16 -10 -18 20 21 -1 -23 -8 -14 26 -11 -27 29 -29
right_child=1 -3 3 5 -6 -7 8 -9 9 11 -12 -13 13 -15 15 -17 18 -19 -20 -21 -22 22 -24 -25 -26 27 -28 28 -30 -31
leaf_value=0.83975557282164282 0.7417606185376644 -1.3475917133688928 -1.3901580756157639 0.51692504510283477 0.021441035270690918 -0.41017531214221831 -1.0206878359724836 -1.6735319566726685 0.46040302157402047 1.115082473486662 0.97452169078067685 1.0282708171251658 -0.1901151838509933 0.19765263749103923 0.87496111816481548 -0.92647600045075296 -0.94443056221519195 -0.86194304092228424 0.21832519088472641 -0.0030938743872079549 1.3197889881134035 -1.1506223703649912 0.36351761817932132 -0.094949664977880627 -1.0735254065195721 -0.066745482396390568 -0.68581404789634381 -0.079091730889152084 -0.7371181903062044 0.81028395828447852
leaf_weight=37 20 20 20 32 20 31 41 20 25 50 103 37 46 51 38 74 35 25 28 5514 25 22 20 52 45 398 23 34 27 95
leaf_count=37 20 20 20 32 20 31 41 20 25 50 103 37 46 51 38 74 35 25 28 5514 25 22 20 52 45 398 23 34 27 95
internal_value=0 -0.249404 -0.0708371 -0.228623 -0.684359 0.0607328 0.00519516 -0.0114847 0.0973625 0.15559 0.590439 0.0730443 0.0270841 -0.3308 -0.00574658 -0.35573 0.0624412 -0.20077 -0.42765 0.00515534 0.442523 0.164907 -0.429603 -0.503071 -0.626966 0.108136 0.547677 0.0502183 0.348626 0.575875
internal_weight=0 143 123 103 40 63 6865 5813 1052 959 153 806 769 142 5793 175 101 50 63 5618 104 79 42 93 91 627 73 554 156 129
internal_count=7008 143 123 103 40 63 6865 5813 1052 959 153 806 769 142 5793 175 101 50 63 5618 104 79 42 93 91 627 73 554 156 129
is_linear=0
shrinkage=0.1


Tree=14
num_leaves=31
num_cat=0
split_feature=11 3 11 9 10 11 11 10 3 11 11 14 11 3 14 1 4 4 1 1 13 11 11 4 3 1 12 11 1 4
split_gain=861.543 1472.6 1416.96 3076.1 2922 4349.97 4314.88 4165.17 4007.65 3804.89 3728.46 5317.93 3511.84 4210 3100.59 2816.49 3673.21 2664.48 2639.37 2585.41 3047.71 2504.15 2480.7 2285.75 7992.89 2503.61 2238.08 1997.42 3841.52 5325.95
threshold=0.99761913169647187 5.5000000000000009 0.80417553764032002 0.98296291314453421 -0.78656609248549325 0.87397152483179585 0.89787622492179153 0.37940952255126048 5.5000000000000009 0.88220160189607266 0.9916835347852474 -0.56174490092936669 0.91248814248966237 1.0000000180025095e-35 1.0000000180025095e-35 86.500000000000014 17.500000000000004 18.500000000000004 110.50000000000001 74.500000000000014 1.0000000180025095e-35 0.46800856592688472 0.93544191479114935 3.5000000000000004 2.5000000000000004 44.500000000000007 -0.63257203029273779 0.71503381463111937 50.500000000000007 12.500000000000002
decision_type=2 2 2 2 2 2 2 2 2 2 2 2 2 2 2 2 2 2 2 2 2 2 2 2 2 2 2 2 2 2
left_child=2 -2 21 4 9 -6 17 8 15 -4 11 -11 -9 -14 -13 19 18 -7 -17 -8 -21 -1 -5 24 25 -23 -26 -25 29 -29
right_child=1 -3 3 22 5 6 7 12 -10 10 -12 14 13 -15 -16 16 -18 -19 -20 20 -22 23 -24 27 26 -27 -28 28 -30 -31
leaf_value=-0.014796329745861862 0.35355198719987163 -0.5466266450427828 0.83437592610716826 1.3430827356301822 -0.61510676483313242 0.95094018989595885 -0.73896684363736953 -0.9544195434739513 0.43073005702184597 0.67144093056942555 0.9949806250374893 -1.2284987187903862 0.9925557582986122 -0.00081880145146015514 -0.18829967677593232 -1.4597475742176176 0.045886488521800328 -0.30189288059870401 -0.4475755477422162 -0.35412941486277483 0.94947384503381016 -1.1757791497490622 -0.025455330312252045 0.19257249677440397 1.6059216515223185 0.08644447814334523 0.64694847236826736 0.17668315505981447 0.060689740896839463 -1.8150276956887081
leaf_weight=4571 135 21 64 26 210 58 59 31 46 47 29 46 51 261 76 80 34 24 38 47 29 22 27 575 45 55 53 25 194 29
leaf_count=4571 135 21 64 26 210 58 59 31 46 47 29 46 51 261 76 80 34 24 38 47 29 22 27 575 45 55 53 25 194 29
internal_value=0 0.232374 -0.00529048 -0.100033 -0.132175 -0.212362 -0.100783 -0.18388 -0.435803 0.164086 -0.0525735 -0.232331 0.0606986 0.16156 -0.580506 -0.57469 -0.869918 0.584257 -1.13379 -0.242284 0.143298 0.0165366 0.645903 0.160046 0.48824 -0.274191 1.08729 0.0902604 -0.146955 -0.892939
internal_weight=0 156 6852 1283 1230 968 758 676 333 262 198 169 343 312 122 287 152 82 118 135 76 5569 53 998 175 77 98 823 248 54
internal_count=7008 156 6852 1283 1230 968 758 676 333 262 198 169 343 312 122 287 152 82 118 135 76 5569 53 998 175 77 98 823 248 54
is_linear=0
shrinkage=0.1


Tree=15
num_leaves=31
num_cat=0
split_feature=2 4 4 1 9 11 1 19 1 7 12 12 10 0 3 10 4 12 1 3 1 1 11 2 3 11 3 1 11 13
split_gain=790.266 1399.02 1767.15 1334.11 3331.53 3658.55 1523.51 2740.25 1397.52 1211.39 1803.47 3514.25 1732.68 4909.33 1588.04 2245.77 1364.06 1931.86 2621.76 5941.91 3669.12 3763.05 3706.56 3802.97 5246.43 2276.81 1927.98 1279.56 1105.64 1265.29
threshold=2.5000000000000004 3.5000000000000004 1.5000000000000002 24.500000000000004 0.25881904510252091 0.29342972903661901 20.500000000000004 1.0000000180025095e-35 18.500000000000004 1.0000000180025095e-35 -0.99983123799342477 -0.99938741687870725 -0.12940952255126037 6.5000000000000009 4.5000000000000009 0.60355339059327384 21.500000000000004 0.89309379682046119 293.50000000000006 3.5000000000000004 271.50000000000006 257.50000000000006 -0.46038400545438724 27.500000000000004 4.5000000000000009 0.93544191479114935 3.5000000000000004 350.50000000000006 0.95998215779580554 0.87837969732492682
decision_type=2 2 2 2 2 2 2 2 2 2 2 2 2 2 2 2 2 2 2 2 2 2 2 2 2 2 2 2 2 2
left_child=1 2 -1 4 5 -2 -7 -8 -6 10 -5 -12 13 -11 15 -14 -13 18 20 -20 21 22 26 24 28 -26 -18 -19 29 -24
right_child=3 -3 -4 9 8 6 7 -9 -10 12 11 16 14 -15 -16 -17 17 27 19 -21 -22 -23 23 -25 25 -27 -28 -29 -30 -31
leaf_value=0.037370668758045546 -0.79475309523669158 0.064952900439154276 1.2909947623377263 0.94141315698623673 -0.2709470203944615 1.0053927133160252 0.80105400543946503 -0.7153588750145653 -1.1055931649309523 1.3443880262416463 -1.0236104618100559 0.0098088916354339695 -0.82502598699770491 -0.087688026604829009 0.57158404819427 0.24848990619182587 -1.2364636236971076 -1.2403165945639978 -0.36723573074529048 1.498348564510384 -1.2413575153197014 1.1912290913718087 0.17603846471418036 1.0862162474010673 -0.4974750486002969 -1.7184460901078724 -0.20684886997745885 -0.17640021085739135 0.62896512066706634 -0.58793147570557058
leaf_weight=22 33 215 23 20 35 31 26 22 47 43 34 5771 38 54 31 40 44 26 38 31 31 21 110 28 56 21 31 20 39 27
leaf_count=22 33 215 23 20 35 31 26 22 47 43 34 5771 38 54 31 40 44 26 38 31 31 21 110 28 56 21 31 20 39 27
internal_value=0 0.171077 0.678112 -0.00659157 -0.265032 0.0895521 0.458945 0.106031 -0.749342 0.00105833 -0.00668635 -0.00968287 0.239715 0.54715 -0.0338742 -0.274505 -0.00420566 -0.158848 -0.0991642 0.470925 -0.195576 -0.109584 -0.186317 -0.0196164 -0.142001 -0.830467 -0.81089 -0.777744 0.159203 0.025475
internal_weight=0 260 45 6748 194 112 79 48 82 6554 6348 6328 206 97 109 78 6294 523 477 69 408 377 356 281 253 77 75 46 176 137
internal_count=7008 260 45 6748 194 112 79 48 82 6554 6348 6328 206 97 109 78 6294 523 477 69 408 377 356 281 253 77 75 46 176 137
is_linear=0
shrinkage=0.1


Tree=16
num_leaves=31
num_cat=0
split_feature=1 18 1 19 10 3 1 12 0 12 12 12 12 12 12 3 1 12 0 13 0 12 12 12 12 12 12 3 10 3
split_gain=749.186 1138.02 1992.93 1206.27 853.139 1865.07 6111.59 2727.67 2597.81 1688.15 2594.13 1792.31 2738.37 1888.83 5057.27 1975.74 2493.32 2289.84 4925.08 1769.28 1634.76 1491.9 2106.34 1841.22 3094.09 1410.81 4213.29 3215.65 2296.18 1314.93
threshold=359.50000000000006 1.0000000180025095e-35 363.50000000000006 2.5000000000000004 -0.9159756150367534 4.5000000000000009 321.50000000000006 0.45847758937963173 1.5000000000000002 -0.84313311835787952 -0.9292178835113839 -0.6523320455745395 -0.54219087765047058 -0.28519997588938989 -0.39827153806311183 1.5000000000000002 312.50000000000006 0.36447543099728863 2.5000000000000004 0.6078576107927941 3.5000000000000004 0.1318557721318592 0.53312596302726967 0.86004965528756494 0.96177147954086928 -0.88620506325989179 -0.67801649466304881 5.5000000000000009 -0.98296291314453399 2.5000000000000004
decision_type=2 2 2 2 2 2 2 2 2 2 2 2 2 2 2 2 2 2 2 2 2 2 2 2 2 2 2 2 2 2
left_child=4 2 3 -2 5 9 7 25 -9 10 -1 -11 -13 14 -14 21 17 20 29 -12 -17 -15 -23 -24 -25 27 -27 -7 -28 -19
right_child=1 -3 -4 -5 -6 6 -8 8 -10 11 19 12 13 15 -16 16 -18 18 -20 -21 -22 22 23 24 -26 26 28 -29 -30 -31
leaf_value=-0.038358345462216274 -0.034948343969881536 -0.869485933581988 0.61704927671838694 -0.98438357270282251 -0.0093966253400046933 0.69194055284772604 1.6654890171686809 0.40506487131118779 -1.0477664195932448 -0.61480653984980149 0.37528162355776185 0.94758872304643915 0.20945091738420377 0.34500547945499421 -1.6432597417097825 -0.71556015176617582 -0.40889770483970644 0.84400585673072115 1.8087749768947736 1.5991292612893242 0.30312446841597557 -1.0056015392629112 0.40626981188025746 -1.3593315671319548 0.31954618181501115 1.6964492022991182 -0.41957054270638361 -1.0798068308830262 0.56562334158444327 -0.12287391485312048
leaf_weight=72 32 24 27 23 6021 21 30 20 32 55 27 28 34 32 26 23 50 22 29 21 50 41 36 23 21 24 36 20 69 39
leaf_count=72 32 24 27 23 6021 21 30 20 32 55 27 28 34 32 26 23 50 22 29 21 50 41 36 23 21 24 36 20 69 39
internal_value=0 -0.263835 -0.0865712 -0.431985 0.00405194 0.0959632 0.325835 0.1448 -0.488985 0.00386846 0.341271 -0.0756763 -0.0103632 -0.0733272 -0.59339 0.0119291 0.208845 0.398337 0.735895 0.910715 -0.017831 -0.262209 -0.422794 -0.124106 -0.558049 0.338664 0.501072 -0.172326 0.227843 0.225837
internal_weight=0 106 82 55 6902 881 252 222 52 629 120 509 454 426 60 366 213 163 90 48 73 153 121 80 44 170 129 41 105 61
internal_count=7008 106 82 55 6902 881 252 222 52 629 120 509 454 426 60 366 213 163 90 48 73 153 121 80 44 170 129 41 105 61
is_linear=0
shrinkage=0.1


Tree=17
num_leaves=31
num_cat=0
split_feature=15 3 11 10 1 4 18 1 11 18 11 11 11 1 1 1 9 8 1 4 11 13 8 10 1 10 10 4 3 9
split_gain=702.235 3554.19 7603.08 4612.03 4473.46 4062.23 2486.93 2087.36 1838.58 2008.94 2993.38 2069.04 2181.34 5211.79 3422.91 2291.39 4286.9 2017.04 2971.67 1826.83 1738.14 4369.3 5254.94 2180.42 4036.6 3426.2 2326.98 2260.04 2087.11 2008.73
threshold=-0.6830127018922193 1.0000000180025095e-35 -0.8821812062722818 0.37940952255126048 238.50000000000003 8.5000000000000018 1.5000000000000002 267.50000000000006 -0.52766804058324157 1.0000000180025095e-35 -0.99815974739704505 -0.84772008488809492 -0.63255557784149707 227.50000000000003 235.50000000000003 216.50000000000003 -0.70710678118654735 1.0000000180025095e-35 244.50000000000003 11.500000000000002 -0.48314718476766422 -0.8783796973249266 1.0000000180025095e-35 -0.37940952255126015 308.50000000000006 -0.78656609248549325 -0.12940952255126037 10.500000000000002 2.5000000000000004 0.37940952255126054
decision_type=2 2 2 2 2 2 2 2 2 2 2 2 2 2 2 2 2 2 2 2 2 2 2 2 2 2 2 2 2 2
left_child=1 2 3 6 5 -4 7 -1 9 11 -11 17 13 19 -15 -14 -17 18 -3 -13 21 29 23 24 -23 27 28 -26 -25 -2
right_child=20 8 4 -5 -6 -7 -8 -9 -10 10 -12 12 15 14 -16 16 -18 -19 -20 -21 -22 22 -24 26 25 -27 -28 -29 -30 -31
leaf_value=-0.62014571468035384 0.47382133483886718 0.90468586683273322 -0.93411188559098679 1.5136896876188426 -1.209613088461069 0.75764116555452343 1.0912610030174255 0.52428156628328215 0.57390477469092926 1.0863177083156728 -0.0080996957563218615 -2.111460729078813 -0.74184453407923379 0.086605463445801112 -0.83873091655619003 -0.83428394360975799 0.86901713079876375 -0.75974576645427283 -0.1115949831309478 -0.96075980098465008 -0.0028824074536626266 1.5904146519303322 1.1297628313996071 -1.5489122434095903 -1.2436883848905564 0.6252544289481814 -0.07644243151725004 -0.050569615638875347 -0.13744474411010743 1.4804002390273157
leaf_weight=30 55 30 22 52 39 40 30 34 38 27 336 22 30 97 68 22 45 45 703 37 4635 20 43 22 20 69 269 77 20 31
leaf_count=30 55 30 22 52 39 40 30 34 38 27 336 22 30 97 68 22 45 45 703 37 4635 20 43 22 20 69 269 77 20 31
internal_value=0 -0.0549328 0.296563 0.75802 -0.370492 0.157342 0.33999 -0.0121687 -0.112813 -0.130662 0.0733033 -0.198031 -0.411642 -0.583184 -0.294745 -0.0155032 0.309724 -0.109896 -0.070001 -1.38983 0.0182413 0.174645 0.069213 -0.0225448 0.248297 0.0865959 -0.184527 -0.296573 -0.876785 0.836658
internal_weight=0 1747 247 146 101 62 94 64 1500 1462 363 1099 321 224 165 97 67 778 733 59 5261 626 540 497 186 166 311 97 42 86
internal_count=7008 1747 247 146 101 62 94 64 1500 1462 363 1099 321 224 165 97 67 778 733 59 5261 626 540 497 186 166 311 97 42 86
is_linear=0
shrinkage=0.1


Tree=18
num_leaves=31
num_cat=0
split_feature=1 10 10 3 10 10 1 8 9 1 1 1 18 19 4 4 13 13 1 1 9 9 9 8 11 3 9 11 18 13
split_gain=622.594 2279.88 1352.52 1117.51 2290.7 857.934 745.104 3886.61 2387.25 2154.87 2089.21 2753.47 2580.44 2113.54 1818.34 2060.93 2293.87 1507.38 1339.2 3068.25 1637 1604.26 1340.4 1308.22 2176 2856.95 2526.15 1371.74 1649.34 2367.61
threshold=357.50000000000006 0.91597561503675351 0.60355339059327384 2.5000000000000004 -0.70710678118654757 -0.5 328.50000000000006 1.0000000180025095e-35 -0.98296291314453399 329.50000000000006 322.50000000000006 321.50000000000006 1.5000000000000002 2.5000000000000004 1.0000000180025095e-35 14.500000000000002 0.87837969732492682 1.0000000180025095e-35 348.50000000000006 340.50000000000006 -0.78656609248549303 -0.70710678118654735 -0.78656609248549303 1.0000000180025095e-35 0.878110924644389 1.0000000180025095e-35 0.60355339059327384 -0.99815974739704505 1.0000000180025095e-35 1.0000000180025095e-35
decision_type=2 2 2 2 2 2 2 2 2 2 2 2 2 2 2 2 2 2 2 2 2 2 2 2 2 2 2 2 2 2
left_child=6 2 3 5 -5 -2 10 8 -8 -10 11 23 13 17 -11 16 -16 -12 19 21 -21 -17 -20 27 25 -25 -27 28 29 -1
right_child=1 -3 -4 4 -6 -7 7 -9 9 14 12 -13 -14 -15 15 18 -18 -19 22 20 -22 -23 -24 24 -26 26 -28 -29 -30 -31
leaf_value=0.72599498565132559 0.66238576412200934 -1.1967234449088575 0.62798170646031704 -1.2934845490889115 -0.0049454292735537971 -0.2638612711429596 -0.89044479799270637 1.4834417772293091 1.1022746929100582 -0.86600217103958144 -1.7115531195764957 1.1191387165676463 0.41601336683545798 -0.14141450002789499 0.38011634577689007 -0.27887206833537032 -0.41701302358082365 -0.60988695268277771 0.70059479395548507 -0.37043320063886975 -1.4524584293365479 0.72527216764596802 -0.27061246545226486 0.61099940175595491 0.42361411609147726 -0.89046288451746758 0.038007391330807716 0.00036874243693184685 1.0746702512204649 -0.37109690989766803
leaf_weight=37 20 20 24 22 37 20 25 20 21 20 23 22 28 40 257 41 42 27 30 29 27 26 27 23 38 92 43 5860 25 42
leaf_count=37 20 20 24 22 37 20 25 20 21 20 23 22 28 40 257 41 42 27 30 29 27 26 27 23 38 92 43 5860 25 42
internal_value=0 -0.206518 -0.0455089 -0.208779 -0.485418 0.199262 0.00430183 0.114312 0.0640691 0.109959 -0.0055642 0.00239185 -0.42238 -0.683214 0.0681984 0.107205 0.268145 -1.11665 -0.160135 -0.345818 -0.892124 0.110796 0.240549 -0.00159653 -0.255806 -0.419211 -0.594728 0.00675777 0.366755 0.142731
internal_weight=0 143 123 99 59 40 6865 565 545 520 6300 6182 118 90 499 479 299 50 180 123 56 67 57 6160 196 158 135 5964 104 79
internal_count=7008 143 123 99 59 40 6865 565 545 520 6300 6182 118 90 499 479 299 50 180 123 56 67 57 6160 196 158 135 5964 104 79
is_linear=0
shrinkage=0.1


Tree=19
num_leaves=31
num_cat=0
split_feature=2 10 10 1 10 19 1 9 3 4 3 10 11 2 11 11 12 11 12 11 11 4 1 12 3 13 12 4 12 12
split_gain=621.307 1178.44 2211.38 1349.68 2781.91 2570.02 1051.53 2707.28 2118.08 1315.47 1052.22 899.586 2190.69 4493.63 2249.16 2673.29 2356.61 2320.67 1412.8 2408.01 5404.54 3500.34 4032.65 3581.35 4352.93 3099.19 2132.67 1955.43 1918.33 4688.51
threshold=2.5000000000000004 0.78656609248549303 0.91597561503675351 4.5000000000000009 -0.12940952255126037 4.5000000000000009 24.500000000000004 0.37940952255126054 1.5000000000000002 15.500000000000002 4.5000000000000009 0.78656609248549303 0.97508442350096236 14.500000000000002 0.93544191479114935 0.9193901325473397 -0.26867065956352881 0.96465729447553372 -0.4755978891912595 -0.63255557784149707 -0.70898476237405783 22.500000000000004 126.50000000000001 -0.88620506325989179 4.5000000000000009 0.87837969732492682 -0.80417042486635371 1.5000000000000002 0.78192542922038288 0.80798785254895478
decision_type=2 2 2 2 2 2 2 2 2 2 2 2 2 2 2 2 2 2 2 2 2 2 2 2 2 2 2 2 2 2
left_child=1 3 -3 4 -1 -5 7 8 9 -2 -10 -8 14 -14 15 18 -16 -18 19 20 -13 22 -21 25 27 -24 -23 -25 -20 -30
right_child=6 2 -4 5 -6 -7 11 -9 10 -11 -12 12 13 -15 16 -17 17 -19 28 21 -22 26 23 24 -26 -27 -28 -29 29 -31
leaf_value=-0.22908003438602795 0.09874601860841116 1.2833611816167831 0.0047862837391514932 0.11880534712618102 1.4004786798357964 -0.84818698201860698 0.01993110044372249 -0.72156025618832142 0.80642382309717286 -0.91876122156778972 0.035802233138599912 -0.18957166956431831 0.034564382253691205 1.6361495275389064 -1.5500181947435652 1.0153226624835623 0.43873353211776078 -0.9818196659502777 0.11393149007718995 -1.6388114094734192 -1.843912092915603 0.16689528287467312 -0.64045074124209933 0.27947680268968855 1.1082633852958679 0.54159815265582167 1.3403625072467895 -0.64454617403274361 -1.669325873965309 -0.093885347532465108
leaf_weight=22 24 24 31 128 20 35 5191 72 34 27 37 67 86 22 21 22 23 23 454 20 28 59 151 49 39 26 21 43 21 188
leaf_count=22 24 24 31 128 20 35 5191 72 34 27 37 67 86 22 21 22 23 23 454 20 28 59 151 49 39 26 21 43 21 188
internal_value=0 0.15169 0.56271 0.0414164 0.5469 -0.088831 -0.0058446 -0.235288 0.0516922 -0.439934 0.404832 0.000946982 -0.0713542 0.360813 -0.108545 -0.0767528 -0.672259 -0.271543 -0.097358 -0.223734 -0.677167 -0.118155 -0.26281 -0.173459 0.22291 -0.466816 0.47493 -0.152404 -0.00148023 -0.252183
internal_weight=0 260 55 205 42 163 6748 194 122 51 71 6554 1363 108 1255 1188 67 46 1166 503 95 408 328 308 131 177 80 92 663 209
internal_count=7008 260 55 205 42 163 6748 194 122 51 71 6554 1363 108 1255 1188 67 46 1166 503 95 408 328 308 131 177 80 92 663 209
is_linear=0
shrinkage=0.1


Tree=20
num_leaves=31
num_cat=0
split_feature=11 0 10 11 4 12 12 19 12 1 1 3 4 4 10 3 11 12 18 11 18 11 9 11 11 18 1 12 9 9
split_gain=641.414 2416.12 3708.43 1924.6 1670.28 1917.9 1481.77 3154.88 2058.8 3295.07 2890.17 2631.12 2425.51 1917.49 2639.88 2535.23 2049.09 1774.86 1912.51 1576.59 2220.65 2148.45 3183.22 1978.19 3222.43 3049.8 1470.38 1304.47 2217.66 2848.67
threshold=0.80417553764032002 2.5000000000000004 0.1294095225512602 0.48314048284850658 1.0000000180025095e-35 -0.63257203029273779 -0.84313311835787952 4.5000000000000009 -0.78324956448884031 136.50000000000003 134.50000000000003 3.5000000000000004 9.5000000000000018 22.500000000000004 0.60355339059327384 1.0000000180025095e-35 0.57077594689671507 0.61067742788105683 -3.4999999999999996 0.70290292807158605 -1.0000000180025095e-35 0.54219432480460406 -0.91597561503675329 0.65233619298682533 0.57077594689671507 1.0000000180025095e-35 42.500000000000007 -0.065537083312030994 -0.98296291314453399 -0.91597561503675329
decision_type=2 2 2 2 2 2 2 2 2 2 2 2 2 2 2 2 2 2 2 2 2 2 2 2 2 2 2 2 2 2
left_child=3 2 -2 -1 5 -5 7 -6 11 10 13 -8 -13 14 15 26 -16 18 -17 21 -21 -19 -23 24 -24 -26 -10 28 -3 -30
right_child=1 27 -4 4 6 -7 8 -9 9 -11 -12 12 -14 -15 16 17 -18 19 -20 20 -22 22 23 -25 25 -27 -28 -29 29 -31
leaf_value=-0.011417299385508351 -0.0024818415994997379 0.81648492117722837 -1.2639266041448205 1.4693906545639039 0.93084506775651654 0.14346658587455749 -0.83386452259882449 -0.48245222026651557 1.1727588407695293 0.6024666442521035 -0.77045635497424669 0.88295244884490975 -0.43164977496489887 -0.83805424372355142 -0.31401256063710092 1.1621571385860443 0.73087877978881199 -0.70604895165092074 0.055079363097607248 -1.1912585055126863 -0.1667203085763114 1.2768235530172076 0.65458492660522472 0.62648461326476079 -1.3267737942583422 0.082557313782828198 0.13848712784903391 0.070278984166531472 -0.87931047917581084 -0.099499619579833498
leaf_weight=4611 54 24 41 20 56 24 53 22 27 126 41 25 32 21 23 20 102 38 71 34 56 21 25 31 34 28 28 694 51 575
leaf_count=4611 54 24 41 20 56 24 53 22 27 126 41 25 32 21 23 20 102 38 71 34 56 21 25 31 34 28 28 694 51 575
internal_value=0 -0.0595155 -0.546895 0.0153785 0.144351 0.746159 0.11538 0.532223 0.0764876 0.137572 0.0399444 -0.326671 0.14493 0.0993835 0.135975 0.0141093 0.538619 -0.0830027 0.298393 -0.212992 -0.553768 -0.0397154 0.142448 -0.0594327 -0.30384 -0.690302 0.646221 -0.0250654 -0.126864 -0.163031
internal_weight=0 1439 95 5569 958 44 914 78 836 726 600 110 57 559 538 413 125 358 91 267 90 177 139 118 87 62 55 1344 650 626
internal_count=7008 1439 95 5569 958 44 914 78 836 726 600 110 57 559 538 413 125 358 91 267 90 177 139 118 87 62 55 1344 650 626
is_linear=0
shrinkage=0.1


Tree=21
num_leaves=31
num_cat=0
split_feature=1 4 1 4 18 13 3 10 10 1 18 1 10 1 1 13 4 13 1 1 13 9 4 1 10 13 8 4 13 4
split_gain=571.422 2599.41 2512.89 985.979 810.38 1048.68 1872.61 1805.62 1119.67 650.817 3936.8 3708.79 2359.99 3804.39 3765.74 3313.5 3242.16 4808.37 2003.44 1941.38 2436.78 2434.35 2981.24 1895.22 1829.04 1510.05 1465.32 2737.47 1700.58 1443.46
threshold=350.50000000000006 1.5000000000000002 349.50000000000006 3.5000000000000004 2.5000000000000004 -0.8783796973249266 3.5000000000000004 -0.60355339059327384 -0.9159756150367534 303.50000000000006 -4.4999999999999991 302.50000000000006 0.25881904510252057 343.50000000000006 344.50000000000006 0.87837969732492682 14.500000000000002 0.87837969732492682 317.50000000000006 316.50000000000006 0.6078576107927941 -0.37940952255126059 3.5000000000000004 327.50000000000006 -0.98296291314453399 1.0000000180025095e-35 1.0000000180025095e-35 7.5000000000000009 1.0000000180025095e-35 10.500000000000002
decision_type=2 2 2 2 2 2 2 2 2 2 2 2 2 2 2 2 2 2 2 2 2 2 2 2 2 2 2 2 2 2
left_child=2 -2 9 -3 5 -5 8 -8 -7 11 25 26 13 16 15 19 17 24 -18 21 -21 -14 -23 -20 -12 -11 -1 28 -28 -19
right_child=1 3 -4 4 -6 6 7 -9 -10 10 12 -13 14 -15 -16 -17 18 29 23 20 -22 22 -24 -25 -26 -27 27 -29 -30 -31
leaf_value=0.0037382433643258235 -1.1590613038643547 0.53472066647731342 1.125006184577942 0.3951863293647766 0.28044719071615315 0.58772507066076451 -1.5256332594156268 -0.3463063146616962 -0.21891606020022045 -1.0031124235618682 -0.37689158990979199 -1.3692490434646607 0.89911004878856515 -0.43489633906083025 0.8884379775669331 0.62727402905200391 1.5537240252350317 -1.2917811675505204 -0.15564529855142942 -0.30868733254345981 -1.3026450925859914 0.34085460997916561 -1.0564174514550428 1.0051369825998941 0.50837470151385977 -0.12695155224284613 0.70383997985294888 -0.58306195175489495 -0.35243767455772118 -0.13269597462245397
leaf_weight=5618 23 26 20 25 42 22 20 37 79 42 26 20 27 61 39 47 33 22 22 165 29 37 26 39 228 37 35 113 27 21
leaf_count=5618 23 26 20 25 42 22 20 37 79 42 26 20 27 61 39 47 33 22 22 165 29 37 26 39 228 37 35 113 27 21
internal_value=0 -0.141561 0.00575997 -0.0483237 -0.115698 -0.206616 -0.301838 -0.760105 -0.0432121 0.0024259 0.0815077 -0.00983158 0.146309 0.299612 -0.0409687 -0.150476 0.414203 0.252204 0.926054 -0.279188 -0.457269 0.104675 -0.235797 0.586494 0.417757 -0.592759 -0.00513826 -0.2901 0.243848 -0.725716
internal_weight=0 274 6734 251 225 183 158 57 101 6714 901 5813 822 452 370 331 391 297 94 284 194 90 63 61 254 79 5793 175 62 43
internal_count=7008 274 6734 251 225 183 158 57 101 6714 901 5813 822 452 370 331 391 297 94 284 194 90 63 61 254 79 5793 175 62 43
is_linear=0
shrinkage=0.1


Tree=22
num_leaves=31
num_cat=0
split_feature=10 3 1 12 0 1 0 1 11 11 1 11 1 1 12 13 13 11 11 1 11 4 0 12 12 3 10 1 1 12
split_gain=563.612 1395.62 3214.67 2255.71 2110.41 1649.88 2432.88 1823.53 2304.67 3008.05 1933.81 1473.3 1463.43 1771.86 1500.7 1363.72 1342.12 2757.89 2594.01 2481.47 1892.83 1225.69 1426.05 1157.23 3318.15 2604.68 1826.56 1149.39 1095.9 1045.72
threshold=-0.9159756150367534 4.5000000000000009 321.50000000000006 0.45847758937963173 1.5000000000000002 319.50000000000006 10.500000000000002 226.50000000000003 -0.95995996396290595 -0.91936887716170002 205.50000000000003 -0.16799356919963607 179.50000000000003 166.50000000000003 -0.84313311835787952 1.0000000180025095e-35 0.6078576107927941 0.62587949062545845 0.94138322595482449 56.500000000000007 0.62587949062545845 12.500000000000002 3.5000000000000004 -0.88620506325989179 -0.67801649466304881 5.5000000000000009 -0.98296291314453399 238.50000000000003 22.500000000000004 -0.3744658827978154
decision_type=2 2 2 2 2 2 2 2 2 2 2 2 2 2 2 2 2 2 2 2 2 2 2 2 2 2 2 2 2 2
left_child=1 5 3 23 -5 6 7 10 -9 -10 11 -1 13 14 -13 -7 17 28 19 -19 -18 22 -22 25 -25 -3 -26 -11 -16 -28
right_child=-2 2 -4 4 -6 15 -8 8 9 27 -12 12 -14 -15 16 -17 20 18 -20 -21 21 -23 -24 24 26 -27 29 -29 -30 -31
leaf_value=-0.7883143258094788 -0.010865084478496588 0.62177264179502223 1.1615859471048628 0.35990410089492797 -0.94956408850848684 -0.94988304722693673 0.98135014993173098 0.18430212082915076 -1.5616520309448243 -0.82040004730224614 0.80494801482638811 0.7284669532495387 0.8650795908077904 -0.82676756978034982 0.11062945411318825 -0.098991357162594801 0.33485697746276855 -0.051924079585643046 -0.13481875949127728 1.2513885418574016 -0.83273756504058838 -1.2281859040260317 0.26917551548584651 1.5146360297997794 -0.36608195238643226 -0.97279999256134042 -0.075957750138782323 0.1205478945199181 -0.85256565235279236 0.77010435348687079
leaf_weight=20 6111 21 35 20 32 31 27 56 25 21 37 34 23 22 21 48 35 21 43 48 24 20 23 24 36 20 21 34 27 48
leaf_count=20 6111 21 35 20 32 31 27 56 25 21 37 34 23 22 21 48 35 21 43 48 24 20 23 24 36 20 21 34 27 48
internal_value=0 0.0740206 0.27086 0.13043 -0.445922 -0.00502259 0.0552291 0.00840272 -0.307722 -0.652138 0.116425 0.0458563 0.0947813 0.0390679 0.103421 -0.432886 0.0223076 0.203019 0.474813 0.854728 -0.261161 -0.572513 -0.293504 0.306726 0.453816 -0.156068 0.211342 -0.238723 -0.431168 0.512607
internal_weight=0 897 257 222 52 640 561 534 136 80 398 361 341 318 296 79 262 160 112 69 102 67 47 170 129 41 105 55 48 69
internal_count=7008 897 257 222 52 640 561 534 136 80 398 361 341 318 296 79 262 160 112 69 102 67 47 170 129 41 105 55 48 69
is_linear=0
shrinkage=0.1


Tree=23
num_leaves=31
num_cat=0
split_feature=11 3 10 11 11 4 11 10 4 10 3 12 4 11 10 11 3 9 13 10 18 4 11 14 12 0 4 9 11 0
split_gain=553.885 1120.57 1317.53 1023.35 2225.07 3486.76 1533.51 5513.22 4094.62 1964.99 2551.54 1743.9 1643.52 1622.76 1433.73 2862.22 3070.42 1558.23 1928.03 3535.81 1804.17 3111.58 1738.32 2964.04 2415.07 2095.41 1972.52 1550.46 2133.26 2066.42
threshold=0.99761913169647187 5.5000000000000009 -0.78656609248549325 0.89787622492179153 0.87397152483179585 6.5000000000000009 0.80417553764032002 -0.78656609248549325 12.500000000000002 0.25881904510252057 1.5000000000000002 -0.49065906150552346 20.500000000000004 0.48314048284850658 0.37940952255126048 0.91248814248966237 1.0000000180025095e-35 0.98296291314453421 0.6078576107927941 0.1294095225512602 -2.4999999999999996 13.500000000000002 0.99274428880883148 -0.56174490092936669 -0.23537842981696178 3.5000000000000004 12.500000000000002 -0.60355339059327362 0.93544191479114935 3.5000000000000004
decision_type=2 2 2 2 2 2 2 2 2 2 2 2 2 2 2 2 2 2 2 2 2 2 2 2 2 2 2 2 2 2
left_child=3 2 -2 4 6 -6 13 8 -8 10 -9 -11 -13 -1 17 -16 -17 18 19 22 -20 -22 23 -5 -25 26 -26 29 -29 -18
right_child=1 -3 -4 14 5 -7 7 9 -10 11 -12 12 -14 -15 15 16 27 -19 20 -21 21 -23 -24 24 25 -27 -28 28 -30 -31
leaf_value=-0.010959568834249388 -0.30523990187151684 -0.49322047233581545 0.45542916160358016 0.32532585987857748 1.3536722313973213 0.10869129634485014 -0.015464228211027204 -0.86197334668215575 1.7707643168313163 -0.3391811183520726 0.1823724211851756 -1.5376736889282863 -0.44059215797619383 0.13207318372130084 -0.86005457678148822 0.85710496081441068 1.0217936740767573 0.4318744027780162 -1.1165741099816997 -0.84843365267703408 -0.60889235454243285 0.72383652925491337 0.55514298555802322 0.19838517013133741 0.15279090953500649 -1.330663049221039 -0.87297551180865318 0.58870518735476907 -0.26947962364980155 -0.17483936746915182
leaf_weight=4611 29 21 106 102 31 82 33 34 21 56 75 36 22 958 31 51 31 36 41 57 86 22 49 51 38 31 37 35 168 27
leaf_count=4611 29 21 106 102 31 82 33 34 21 56 75 36 22 958 31 51 31 36 41 57 86 22 49 51 38 31 37 35 168 27
internal_value=0 0.18632 0.292026 -0.00424196 0.0107184 0.450235 0.00222283 -0.227425 0.67918 -0.446962 -0.143387 -0.737223 -1.12154 0.0136455 -0.104073 0.0563782 0.147434 -0.204136 -0.248682 -0.124938 -0.551811 -0.337411 0.0089555 -0.0943773 -0.367051 -0.6391 -0.353254 0.00876263 -0.121517 0.46474
internal_weight=0 156 135 6852 5959 113 5846 277 54 223 109 114 58 5569 893 343 312 550 514 365 149 108 308 259 157 106 75 261 203 58
internal_count=7008 156 135 6852 5959 113 5846 277 54 223 109 114 58 5569 893 343 312 550 514 365 149 108 308 259 157 106 75 261 203 58
is_linear=0
shrinkage=0.1


Tree=24
num_leaves=31
num_cat=0
split_feature=2 18 3 3 19 4 19 1 1 9 11 1 18 1 10 11 2 11 15 12 9 3 11 10 2 1 12 1 12 14
split_gain=504.076 1007.56 2823.58 2579.94 2356.54 2070.32 1937.03 1812.71 851.244 2256.14 2707.32 1115.43 997.639 1251.52 705.75 1713.17 3819.58 1733.11 1988.25 1796.99 1788.29 4502.04 1746.06 1619.65 5221.73 5130.42 4437.09 2982.53 2791.41 2562.56
threshold=2.5000000000000004 1.0000000180025095e-35 3.5000000000000004 4.5000000000000009 1.0000000180025095e-35 13.500000000000002 1.0000000180025095e-35 8.5000000000000018 24.500000000000004 0.25881904510252091 0.29342972903661901 18.500000000000004 -2.4999999999999996 20.500000000000004 0.78656609248549303 0.97508442350096236 14.500000000000002 0.93544191479114935 0.68301270189221941 -0.26867065956352881 0.12940952255126045 4.5000000000000009 0.96465729447553372 0.91597561503675351 24.500000000000004 338.50000000000006 0.84658398682345093 164.50000000000003 -0.46800559042974538 -0.22252093395631442
decision_type=2 2 2 2 2 2 2 2 2 2 2 2 2 2 2 2 2 2 2 2 2 2 2 2 2 2 2 2 2 2
left_child=1 3 -3 4 5 -1 -5 -6 9 10 -2 -11 -12 -14 -10 17 -17 18 23 -19 -20 -22 -21 24 -16 26 27 -25 -29 -26
right_child=8 2 -4 6 7 -7 -8 -9 14 11 12 -13 13 -15 15 16 -18 19 20 22 21 -23 -24 25 29 -27 -28 28 -30 -31
leaf_value=1.6509124626715979 -0.68061348741704775 -0.77526965914545842 0.56968490106088143 -1.0345385136811629 0.56891805453178212 0.48662369274312545 0.17667363382154896 -0.40817933791392563 0.017661143108151752 -0.18285928521837508 0.98843476566530419 -0.92852782746578788 0.77824324640360754 -0.17910649354259175 -0.94502459148784268 0.018194836516712987 1.4947826548056169 -1.3574057990596409 -0.011546165256396585 0.37509999482528023 0.12805216467263653 1.8982981258630751 -0.85709963259489652 0.48508912797244091 -0.40533173088516511 -0.87942453776636431 1.3070489449160441 -0.38068184841956415 0.14904209838645294 0.16722185599938624
leaf_weight=24 33 37 27 23 39 42 31 37 5191 35 21 47 22 36 91 86 22 21 115 23 51 20 23 106 140 62 28 196 202 177
leaf_count=24 33 37 27 23 39 42 31 37 5191 35 21 47 22 36 91 86 22 21 115 23 51 20 23 106 140 62 28 196 202 177
internal_value=0 0.136632 -0.207867 0.249121 0.472854 0.910001 -0.339213 0.0932259 -0.00526441 -0.211704 0.0800929 -0.610255 0.397856 0.184026 0.000846234 -0.0631935 0.318981 -0.0960819 -0.0681744 -0.590918 0.23209 0.626713 -0.241 -0.123912 -0.277317 -0.0185432 0.0817851 0.0137149 -0.111827 -0.0856409
internal_weight=0 260 64 196 142 66 54 76 6748 194 112 82 79 58 6554 1363 108 1255 1188 67 186 71 46 1002 408 594 532 504 398 317
internal_count=7008 260 64 196 142 66 54 76 6748 194 112 82 79 58 6554 1363 108 1255 1188 67 186 71 46 1002 408 594 532 504 398 317
is_linear=0
shrinkage=0.1


Tree=25
num_leaves=31
num_cat=0
split_feature=11 11 4 9 1 11 4 11 4 11 4 4 3 14 0 1 3 11 10 11 19 18 10 1 11 1 4 8 0 9
split_gain=491.884 4999.22 6577.62 2617.82 2252.37 1879.31 3207.42 2610.58 2054.67 2041.29 2566.15 1957.83 2398.37 2131.35 3179.06 1819.19 1958.12 6086.44 3589.88 2944.2 2898.49 1974.96 1868.96 1752.51 2685.11 1631.76 1529.32 1369.52 2022.47 1188.7
threshold=-0.63255557784149707 -0.67166439702596292 5.5000000000000009 -0.37940952255126059 321.50000000000006 -0.48314718476766422 8.5000000000000018 -0.59869031648930193 10.500000000000002 -0.59176244063315286 18.500000000000004 16.500000000000004 3.5000000000000004 1.0000000180025095e-35 10.500000000000002 227.50000000000003 1.0000000180025095e-35 -0.8821812062722818 0.37940952255126048 -0.81923160956083974 2.5000000000000004 1.5000000000000002 1.0000000180025095e-35 328.50000000000006 -0.52766804058324157 267.50000000000006 13.500000000000002 1.0000000180025095e-35 9.5000000000000018 0.98296291314453421
decision_type=2 2 2 2 2 2 2 2 2 2 2 2 2 2 2 2 2 2 2 2 2 2 2 2 2 2 2 2 2 2
left_child=1 4 -3 -4 15 6 7 -2 -8 10 -10 12 26 14 -13 22 17 18 21 -19 -21 25 -1 24 -9 -17 -11 29 -29 -18
right_child=5 2 3 -5 -6 -7 8 23 9 11 -12 13 -14 -15 -16 16 27 19 -20 20 -22 -23 -24 -25 -26 -27 -28 28 -30 -31
leaf_value=0.019177439212799074 1.3629581227022058 -1.9232887314211937 -0.77481358755718588 0.31601934847633611 1.0038406007669189 -0.0015741836484581908 -0.69047243098417921 -0.466441095892976 -0.90961026648680365 0.58058178822199513 0.42532462750871974 -0.32607318560282389 0.034865384770091622 -0.56375030814073035 1.2557088613510132 -0.54673483133316036 -0.040880239105755743 -1.0195120163452931 1.3401387535608733 0.62133072630355235 -0.84256564208439411 0.97412715554237372 -1.3315495263962518 0.80032800120465897 0.903014525500211 0.46512015847598809 1.7874363853817894 -0.93504530565860944 0.28219170683906197 0.39647926000448375
leaf_weight=20 34 31 44 44 22 4635 36 41 36 21 24 27 32 39 24 30 1414 39 52 38 21 30 21 51 22 34 21 39 21 65
leaf_count=20 34 31 44 44 22 4635 36 41 36 21 24 27 32 39 24 30 1414 39 52 38 21 30 21 51 22 34 21 39 21 65
internal_value=0 -0.0424422 -0.670663 -0.229397 -0.00194472 0.0165375 0.222292 0.593916 0.0107525 0.123449 -0.375636 0.306042 0.687082 -0.00725806 0.418295 -0.0140759 0.00106817 0.264257 0.673446 -0.34535 0.100283 0.304637 -0.672658 0.364552 0.0117815 -0.00918687 1.18401 -0.040659 -0.509012 -0.0216589
internal_weight=0 1965 119 88 1846 5043 408 148 260 224 60 164 74 90 51 1824 1783 244 146 98 59 94 41 114 63 64 42 1539 60 1479
internal_count=7008 1965 119 88 1846 5043 408 148 260 224 60 164 74 90 51 1824 1783 244 146 98 59 94 41 114 63 64 42 1539 60 1479
is_linear=0
shrinkage=0.1


Tree=26
num_leaves=31
num_cat=0
split_feature=11 11 11 10 9 4 13 14 1 4 9 3 3 11 4 12 9 1 9 11 1 4 12 15 3 9 18 19 3 10
split_gain=478.745 3301.22 3225.14 2277.63 1141.41 2812.15 3375.67 1977.2 3181.55 1786.61 1632.49 3279.66 3263.63 2610.2 2811.96 2914.45 2948.03 2561.98 3249.57 2455.19 2127.84 3673.3 2111.43 1587.42 2903.66 6218.19 1781.07 1518.81 2270.31 2812.82
threshold=0.71503381463111937 0.65233619298682533 0.72695311118111527 0.60355339059327384 -0.91597561503675329 18.500000000000004 1.0000000180025095e-35 -0.56174490092936669 92.500000000000014 17.500000000000004 0.60355339059327384 3.5000000000000004 2.5000000000000004 0.80417553764032002 11.500000000000002 0.63755505330306683 -0.5 126.50000000000001 0.98296291314453421 0.97875492728876534 60.500000000000007 14.500000000000002 0.61067742788105683 0.93301270189221952 5.5000000000000009 0.91597561503675362 3.5000000000000004 1.5000000000000002 5.5000000000000009 -0.78656609248549325
decision_type=2 2 2 2 2 2 2 2 2 2 2 2 2 2 2 2 2 2 2 2 2 2 2 2 2 2 2 2 2 2
left_child=1 -1 -2 -3 5 7 -7 -4 9 -9 13 12 17 14 22 16 -16 18 -12 -14 21 -15 -6 24 -13 -26 -25 28 29 -22
right_child=2 3 4 -5 10 6 -8 8 -10 -11 11 23 19 20 15 -17 -18 -19 -20 -21 27 -23 -24 26 25 -27 -28 -29 -30 -31
leaf_value=0.00014333325001483684 -0.94455650586348305 0.20304029498781478 0.64291560263247105 0.9792804314030541 0.50091021983854234 -1.379741990260589 0.018286625800594206 -0.14985242486000061 0.41453648706277213 -1.2795196783329761 -0.2329838947093848 0.26640334912773334 -0.55117545543715019 0.24141275592148306 1.0149498452742896 -0.76675188667499106 -0.25908714514225722 -1.229932965551104 0.95043822968447655 -1.8500102368268099 0.092851496714890777 -1.2988283849786968 1.7654728267503821 0.10304984336807615 -1.6432840021593229 0.66536780118942263 1.1023515612848345 0.2386318670494573 0.46038063688052672 -0.42557384378717922
leaf_weight=5084 39 126 37 54 31 39 31 28 45 28 165 99 43 30 42 26 32 21 27 22 233 32 23 42 28 20 31 286 74 190
leaf_count=5084 39 126 37 54 31 39 31 28 45 28 165 99 43 30 42 26 32 21 27 22 233 32 23 42 28 20 31 286 74 190
internal_value=0 0.0150442 -0.0454088 0.435912 -0.0248418 -0.244344 -0.760615 0.0175333 -0.211567 -0.714686 0.0056568 -0.142248 -0.370539 0.0793872 0.458024 0.144016 0.464015 -0.181263 -0.0665652 -0.990781 0.0103812 -0.55355 1.03952 0.146229 -0.0430657 -0.681346 0.527411 0.0550348 -0.0506166 -0.140011
internal_weight=0 5264 1744 180 1705 208 70 138 101 56 1497 498 278 999 154 100 74 213 192 65 845 62 54 220 147 48 73 783 497 423
internal_count=7008 5264 1744 180 1705 208 70 138 101 56 1497 498 278 999 154 100 74 213 192 65 845 62 54 220 147 48 73 783 497 423
is_linear=0
shrinkage=0.1


Tree=27
num_leaves=31
num_cat=0
split_feature=11 3 10 11 4 11 11 19 3 11 11 10 13 11 18 11 4 9 14 11 19 4 2 0 10 10 18 18 0 11
split_gain=492.545 882.156 1138.07 804.847 2181.53 681.267 599.717 2749.45 1574.52 1030.38 2389.19 1482.06 2306.8 1782.15 2865.43 2587.21 1695.56 1661.34 1613.27 1347.51 4876.76 1865.83 1315.55 1208.86 1556.39 1413.69 1107.31 1000.38 970.61 897.743
threshold=0.99761913169647187 5.5000000000000009 -0.78656609248549325 0.9962888416657264 11.500000000000002 0.99865421017599998 0.99274428880883148 4.5000000000000009 4.5000000000000009 0.92602006027323147 0.9193901325473397 0.37940952255126048 -0.8783796973249266 0.95752911693909493 -1.0000000180025095e-35 0.97696484778429815 8.5000000000000018 -0.37940952255126059 -0.56174490092936669 0.9053161325100999 1.5000000000000002 9.5000000000000018 14.500000000000002 3.5000000000000004 -0.37940952255126015 -0.37940952255126015 1.0000000180025095e-35 -1.4999999999999998 3.5000000000000004 0.87397152483179585
decision_type=2 2 2 2 2 2 2 2 2 2 2 2 2 2 2 2 2 2 2 2 2 2 2 2 2 2 2 2 2 2
left_child=3 2 -2 6 -5 -4 9 8 -8 10 19 12 28 14 -14 16 -15 -13 -19 29 21 -21 -20 25 -25 -17 -16 -18 -11 -1
right_child=1 -3 5 4 -6 -7 7 -9 -10 11 -12 17 13 15 26 23 27 18 22 20 -22 -23 -24 24 -26 -27 -28 -29 -30 -31
leaf_value=0.001988678743611617 -0.28560972624811631 -0.42723088605063303 0.017848570197820664 -1.1897549676895143 0.2872442144155502 0.580635652495058 0.11696205457051596 -0.68499800779602749 1.150296084634189 -0.49673752083497891 0.79826049428237111 0.43642710855713596 0.14055067015730816 1.1848313487094382 -1.4467235876166304 0.4467824008013751 0.63684694789074081 -0.61137749578090428 -0.23691496012503641 -0.36731292009353639 0.513243511951331 -1.6631710090637206 0.46587025642395025 -0.93672685739470696 0.091036645225856624 -0.51540451416602495 -0.59051014063033191 -0.17329775997570585 -1.3378543812295665 0.24815461663284194
leaf_weight=5846 29 21 30 20 20 76 30 22 29 34 38 81 46 23 23 37 27 47 57 20 33 25 50 41 23 26 44 35 23 152
leaf_count=5846 29 21 30 20 20 76 30 22 29 34 38 81 46 23 23 37 27 47 57 20 33 25 50 41 23 26 44 35 23 152
internal_value=0 0.1757 0.26949 -0.00400018 -0.451255 0.421356 -0.0013739 0.269105 0.624872 -0.00462881 0.00780025 -0.127791 -0.249352 -0.146439 -0.467184 0.0245238 0.451536 0.0698094 -0.123022 0.00285662 -0.410109 -1.08723 0.0914893 -0.261272 -0.567374 0.0496894 -0.884434 0.179507 -0.836136 0.00822696
internal_weight=0 156 135 6852 40 106 6812 81 59 6731 6114 617 382 325 113 212 85 235 154 6076 78 45 107 127 64 63 67 62 57 5998
internal_count=7008 156 135 6852 40 106 6812 81 59 6731 6114 617 382 325 113 212 85 235 154 6076 78 45 107 127 64 63 67 62 57 5998
is_linear=0
shrinkage=0.1


Tree=28
num_leaves=31
num_cat=0
split_feature=12 3 10 12 3 0 12 4 4 19 9 12 11 9 4 4 7 9 16 4 13 4 2 1 18 13 4 10 10 4
split_gain=440.237 3571.78 989.257 520.901 3104.4 1700.72 1235.46 3041.2 4553.06 1668.08 1131.27 926.191 2820.84 1301.82 1658.79 745.975 525.724 2568.73 3402.51 3343.45 3965.45 1405.57 1114.48 746.766 2526.79 1603.66 1388.37 1017.27 2321.17 691.139
threshold=-0.99938741687870725 5.5000000000000009 1.0000000180025095e-35 -0.99628250747696534 2.5000000000000004 6.5000000000000009 -0.99052477729077237 7.5000000000000009 12.500000000000002 1.5000000000000002 -0.70710678118654735 -0.98212955754013376 0.15951094710994371 -0.60355339059327362 10.500000000000002 12.500000000000002 1.0000000180025095e-35 -0.60355339059327362 -0.24999999999999994 13.500000000000002 0.87837969732492682 4.5000000000000009 30.500000000000004 10.500000000000002 1.0000000180025095e-35 1.0000000180025095e-35 15.500000000000002 -0.37940952255126015 0.60355339059327384 21.500000000000004
decision_type=2 2 2 2 2 2 2 2 2 2 2 2 2 2 2 2 2 2 2 2 2 2 2 2 2 2 2 2 2 2
left_child=1 2 -1 4 5 -2 7 9 -9 -5 -10 12 13 -8 -15 -7 23 18 -18 20 21 -19 -23 24 25 27 -27 -13 -29 -25
right_child=3 -3 -4 6 -6 15 11 8 10 -11 -12 16 -14 14 -16 -17 17 19 -20 -21 -22 22 -24 29 -26 26 -28 28 -30 -31
leaf_value=-1.177849632339633 0.33066323336802034 0.88487404108047485 -0.29274086972166385 -1.6664405993372204 0.95383100909622098 -1.0353899133205413 -0.65774948787689214 1.0734427102974482 -0.041802301085912263 -0.40459426248615443 -0.97465318693564496 0.7431246876716614 0.97826147385132622 -0.22706819881092419 0.90984313488006596 -0.17169140577316286 0.53003288841247564 -0.70496693293253587 -0.97209835115231957 1.4670293241739274 1.2160844977412906 0.68092493829519851 -0.19675312164502268 -0.00093845094110974522 -0.46905461507184171 1.2957388166586559 0.23558804194132488 -0.85597030960995224 0.46106027513742448 -0.12169911065544191
leaf_weight=23 38 20 28 20 38 20 25 28 26 22 26 20 39 33 21 20 25 30 38 24 28 23 39 5689 42 30 21 23 32 517
leaf_count=23 38 20 28 20 38 20 25 28 26 22 26 20 39 33 21 20 25 30 38 24 28 23 39 5689 42 30 21 23 32 517
internal_value=0 -0.247744 -0.691908 0.00253565 0.212665 -0.148416 -0.00103787 -0.316404 0.0453569 -1.00547 -0.508228 0.00470548 0.282389 -0.0611428 0.215064 -0.603541 -0.000273502 0.156565 -0.376015 0.389569 0.174077 -0.143056 0.128837 -0.00536695 0.202669 0.426576 0.859206 0.132388 -0.089698 -0.0109986
internal_weight=0 71 51 6937 116 78 6821 122 80 42 52 6699 118 79 54 40 6581 207 63 144 120 92 62 6374 168 126 51 75 55 6206
internal_count=7008 71 51 6937 116 78 6821 122 80 42 52 6699 118 79 54 40 6581 207 63 144 120 92 62 6374 168 126 51 75 55 6206
is_linear=0
shrinkage=0.1


Tree=29
num_leaves=31
num_cat=0
split_feature=11 18 0 4 11 15 3 1 1 11 4 19 10 11 9 3 9 13 1 19 11 11 18 10 4 4 11 11 4 19
split_gain=414.6 2393.74 1271.55 1300.82 689.729 471.154 2055.87 4036.04 2147.7 1213.1 1101.12 1300.16 1687.49 1074.45 5954.67 5553.12 2182.46 1445.66 1392.39 1622.61 1167.92 1156.31 2182.58 1532.6 1335.15 1561.14 3219.64 5395.3 2038.92 1220.87
threshold=-0.99815974739704505 1.0000000180025095e-35 9.5000000000000018 13.500000000000002 -0.99697703579879204 -0.6830127018922193 1.0000000180025095e-35 302.50000000000006 295.50000000000006 -0.52766804058324157 20.500000000000004 1.5000000000000002 -0.60355339059327384 -0.73282214301478099 0.78656609248549325 3.5000000000000004 0.25881904510252091 -0.8783796973249266 235.50000000000003 3.5000000000000004 -0.66528616069191593 -0.84772008488809492 1.0000000180025095e-35 0.60355339059327384 1.0000000180025095e-35 2.5000000000000004 -0.96463499255812291 -0.91246704667116951 3.5000000000000004 4.5000000000000009
decision_type=2 2 2 2 2 2 2 2 2 2 2 2 2 2 2 2 2 2 2 2 2 2 2 2 2 2 2 2 2 2
left_child=1 2 -1 -4 -2 6 7 8 10 13 11 12 -6 18 16 -16 17 -15 19 -8 -18 24 23 -23 -20 26 -26 -28 -27 -30
right_child=4 -3 3 -5 5 -7 9 -9 -10 -11 -12 -13 -14 14 15 -17 20 -19 21 -21 -22 22 -24 -25 25 28 27 -29 29 -31
leaf_value=-0.50382112088875897 -0.43984331670734617 0.95921586056550356 -0.33742048636726713 0.64225405617193743 0.56720654522550518 0.013420414698208052 0.63269829663363375 -1.1335958313941956 1.2877511392940175 0.46088820507651884 -0.40451265158050731 0.80777837585571199 -0.16703160650589888 0.38946554868117622 1.6954688879159783 -0.33408026365297183 -1.6399734258651735 -0.4701304048811662 0.57033261060714724 -0.38345633365891202 -0.69934100382255782 -1.092683611914169 0.346533491061284 -0.10807314109802246 -1.3050710993428385 0.71260704853955437 0.9299266108760128 -1.2370786118507386 -0.16247694069161439 0.12036622456378408
leaf_weight=39 36 30 23 33 58 5261 55 20 22 38 23 43 68 23 26 28 22 131 32 22 33 43 26 25 31 34 27 20 520 216
leaf_count=39 36 30 23 33 58 5261 55 20 22 38 23 43 68 23 26 28 22 131 32 22 33 43 26 25 31 34 27 20 520 216
internal_value=0 0.180489 -0.0654243 0.239888 -0.00327781 -0.000982444 -0.0487589 0.224911 0.351874 -0.0961248 0.244638 0.332984 0.170951 -0.112233 -0.293 0.64311 -0.534866 -0.341749 -0.0669984 0.342368 -1.07559 -0.0993611 -0.432738 -0.730694 -0.0637504 -0.0876781 -0.513984 0.00779673 -0.0444939 -0.0794686
internal_weight=0 125 95 56 6883 6847 1586 234 214 1352 192 169 126 1314 263 54 209 154 1051 77 55 974 94 68 880 848 78 47 770 736
internal_count=7008 125 95 56 6883 6847 1586 234 214 1352 192 169 126 1314 263 54 209 154 1051 77 55 974 94 68 880 848 78 47 770 736
is_linear=0
shrinkage=0.1


Tree=30
num_leaves=31
num_cat=0
split_feature=11 11 11 10 3 14 11 10 14 11 11 14 4 10 13 1 11 1 15 3 4 1 4 1 4 10 9 10 1 11
split_gain=406.368 2663.25 2609.46 1905.45 1535.59 1448.46 2954.38 1062.47 1874.06 3491.4 2920.98 2974.78 2024.15 1315.79 3779.47 3680.75 2504.1 2564.63 1676.4 2382.63 5086.76 2081.7 3202.94 2864.04 3337.22 3030.57 2699.09 1493.8 1948.8 1843.11
threshold=0.71503381463111937 0.65233619298682533 0.72695311118111527 0.25881904510252057 5.5000000000000009 -0.22252093395631442 0.69056404122701587 -0.78656609248549325 -0.56174490092936669 0.95998215779580554 0.9916835347852474 1.0000000180025095e-35 10.500000000000002 -0.60355339059327384 0.87837969732492682 110.50000000000001 0.98522604642031408 62.500000000000007 0.93301270189221952 4.5000000000000009 16.500000000000004 74.500000000000014 4.5000000000000009 80.500000000000014 16.500000000000004 -0.12940952255126037 -0.60355339059327362 0.78656609248549303 54.500000000000007 0.97508442350096236
decision_type=2 2 2 2 2 2 2 2 2 2 2 2 2 2 2 2 2 2 2 2 2 2 2 2 2 2 2 2 2 2
left_child=1 -1 -2 4 -3 -5 -7 8 9 -4 11 -10 -13 14 15 16 17 -9 27 21 -21 22 -20 24 -23 -25 -27 -15 -29 -30
right_child=2 3 7 5 -6 6 -8 13 10 -11 -12 12 -14 18 -16 -17 -18 -19 19 20 -22 23 -24 25 -26 26 -28 28 29 -31
leaf_value=0.0004766039312344534 -0.85061898353772281 -0.074308985329809646 0.96175966637749832 1.2726316793398424 0.88174527599698027 -0.45139635858081634 1.2260118518556868 -0.44407795610881995 -0.70387007829169157 -0.24586639052782303 0.68435254395008094 0.91038458061218275 -0.092699210157672185 -0.20670966563107324 0.89260287738981714 0.24622826385192381 -0.17290458268132702 -1.8419346073695593 -1.0099755004394886 1.1284694577897749 -0.25092717764225414 1.4586558248057511 0.016106192126440315 -0.95626841613224567 -0.15393029621669227 1.0710721556787137 -0.12684370747977688 0.86173667455541691 -0.19840401166677477 0.46541157447058579
leaf_weight=5084 39 84 62 33 21 21 21 21 71 39 48 25 103 548 21 39 29 35 43 62 47 33 104 28 21 27 62 29 150 58
leaf_count=5084 39 84 62 33 21 21 21 21 71 39 48 25 103 548 21 39 29 35 43 62 47 33 104 28 21 27 62 29 150 58
internal_value=0 0.0138605 -0.0418357 0.39188 0.116902 0.77685 0.387308 -0.0233357 0.132546 0.495449 -0.0158472 -0.18474 0.103216 -0.0633113 -0.348 -0.558102 -0.927148 -1.31774 -0.029252 0.13021 0.533684 -0.00808702 -0.28404 0.229136 0.831539 -0.0488964 0.236569 -0.115991 0.0937706 -0.0133016
internal_weight=0 5264 1744 180 105 75 42 1705 348 101 247 199 128 1357 145 124 85 56 1212 427 109 318 147 171 54 117 89 785 237 208
internal_count=7008 5264 1744 180 105 75 42 1705 348 101 247 199 128 1357 145 124 85 56 1212 427 109 318 147 171 54 117 89 785 237 208
is_linear=0
shrinkage=0.1


Tree=31
num_leaves=31
num_cat=0
split_feature=1 1 4 4 18 13 1 1 9 4 13 12 9 4 12 4 10 10 11 10 12 4 16 16 1 1 4 11 4 12
split_gain=393.654 2137.68 1758.48 796.634 642.876 789.156 1581.56 807.979 686.126 720.84 562.659 1807.31 6216.57 5356.77 3722.95 3283.91 2412.22 3661.21 3693.57 2558.73 2518.76 2392.85 2203.31 4881.35 3815.88 2112.97 2015.72 1893.97 4421.18 1699.47
threshold=350.50000000000006 348.50000000000006 1.5000000000000002 3.5000000000000004 2.5000000000000004 -0.8783796973249266 362.50000000000006 360.50000000000006 -0.37940952255126059 16.500000000000004 -0.8783796973249266 0.3484035575467645 0.37940952255126054 1.0000000180025095e-35 0.86869874770991873 2.5000000000000004 0.37940952255126048 -0.9159756150367534 0.99274428880883148 -0.5 -0.93543596745397617 21.500000000000004 -0.68301270189221952 -0.9330127018922193 251.50000000000003 54.500000000000007 5.5000000000000009 -0.68430824382591193 6.5000000000000009 -0.14250536273956091
decision_type=2 2 2 2 2 2 2 2 2 2 2 2 2 2 2 2 2 2 2 2 2 2 2 2 2 2 2 2 2 2
left_child=1 10 -2 -4 5 -5 7 8 9 -7 11 13 25 -1 27 -15 17 29 19 20 -19 -18 23 -21 -24 -13 -16 -14 -29 -17
right_child=2 -3 3 4 -6 6 -8 -9 -10 -11 -12 12 14 15 26 16 21 18 -20 22 -22 -23 24 -25 -26 -27 -28 28 -30 -31
leaf_value=1.3611030264334245 -0.9543818691502447 0.72464989947109693 0.48327071761282592 0.33970483803749085 0.25146718408380236 -0.9685231351852418 -1.0515846030278639 0.37589458847045898 0.026288415217886163 -0.23910655790851232 0.012177938497123212 -0.62731663439470009 0.30795110775076828 -0.95681129289524902 -0.77409761179061176 0.59925536801075119 0.45270470287118636 -1.7937545990943911 0.86939517617225648 -1.0468291334483935 -0.65488819692326694 -0.37678528611476603 -1.0967677331239474 0.73740402255207305 0.12503416167402812 0.032350045927460234 0.56745130916436515 2.1673216551542285 0.41173888719998875 -0.43297299200838268
leaf_weight=22 23 41 26 25 42 20 22 25 49 42 5741 79 23 56 21 58 105 25 20 23 87 52 61 46 44 126 24 32 26 22
leaf_count=22 23 41 26 25 42 20 22 25 49 42 5741 79 23 56 21 58 105 25 20 23 87 52 61 46 44 126 24 32 26 22
internal_value=0 0.00478078 -0.117496 -0.0408088 -0.101369 -0.182348 -0.264951 -0.137702 -0.253377 -0.474402 0.000371007 -0.0708302 0.117895 -0.171423 0.670676 -0.227709 -0.152517 -0.286937 -0.444409 -0.536283 -0.909099 0.177969 -0.296309 0.14266 -0.584775 -0.221863 -0.0586049 1.07583 1.38034 0.315393
internal_weight=0 6734 274 251 225 183 158 136 111 62 6693 952 331 621 126 599 543 386 306 286 112 157 174 69 105 205 45 81 58 80
internal_count=7008 6734 274 251 225 183 158 136 111 62 6693 952 331 621 126 599 543 386 306 286 112 157 174 69 105 205 45 81 58 80
is_linear=0
shrinkage=0.1


Tree=32
num_leaves=31
num_cat=0
split_feature=12 12 12 3 0 12 10 4 19 12 11 9 9 4 3 11 10 11 4 11 18 11 9 10 4 11 11 11 10 10
split_gain=372.97 2204.64 410.489 2514.56 1377.58 935.602 2535.42 3212.57 2142.29 735.55 2284.88 1054.47 1442.8 604.24 423.882 4361.43 3004.7 2899.03 2358.86 2926.7 1646.84 1450.48 2365.31 2260.22 3150.82 1528 1666.24 1578.95 1491 1548.13
threshold=-0.99983123799342477 -0.99938741687870725 -0.99628250747696534 2.5000000000000004 6.5000000000000009 -0.99052477729077237 -0.37940952255126015 12.500000000000002 3.5000000000000004 -0.98212955754013376 0.15951094710994371 -0.60355339059327362 0.25881904510252091 12.500000000000002 1.0000000180025095e-35 -0.8821812062722818 0.37940952255126048 -0.81923160956083974 21.500000000000004 0.21022171450811275 1.5000000000000002 0.21022171450811275 0.91597561503675362 -0.70710678118654757 19.500000000000004 0.97696484778429815 0.80417553764032002 0.9193901325473397 -0.9159756150367534 -0.5
decision_type=2 2 2 2 2 2 2 2 2 2 2 2 2 2 2 2 2 2 2 2 2 2 2 2 2 2 2 2 2 2
left_child=-1 -2 3 4 -3 6 7 -4 -8 10 11 -7 -13 -6 15 16 20 -17 21 -20 -11 28 23 -23 25 26 -25 -28 -19 -30
right_child=1 2 5 -5 13 9 8 -9 -10 14 -12 12 -14 -15 -16 17 -18 18 19 -21 -22 22 -24 24 -26 -27 27 -29 29 -31
leaf_value=0.3166549627845352 -0.80496267641291908 0.2949894218068374 0.98209524495261058 0.8558404269971347 -0.93445840768516075 -0.59458203125000009 -1.1662112072110176 -0.67731201171875011 -0.089715506964259673 -0.059670700505375866 0.87782782576023011 0.74766753101348882 -0.28897874273102858 -0.15712979912757874 -0.010824069207354355 -0.87059654822716359 1.1742518253051317 -0.31620881160100306 -1.4142853593826294 -0.01368473768234253 0.83825094223022456 0.23158774452471953 0.54962453458990368 -0.35645098967985678 0.5006111067533493 0.10745190687869724 -1.4796014684619327 -0.48571448710656934 0.74764428505530722 0.18071772104069111
leaf_weight=37 34 38 28 38 20 25 38 20 36 64 39 25 29 20 5624 39 52 42 25 37 30 109 56 110 40 38 33 31 65 186
leaf_count=37 34 38 28 38 20 25 38 20 36 64 39 25 29 20 5624 39 52 42 25 37 30 109 56 110 40 38 33 31 65 186
internal_value=0 -0.00168071 0.00225638 0.188791 -0.136182 -0.000915887 -0.275355 0.290676 -0.642511 0.00408212 0.251543 -0.057636 0.19095 -0.545794 -0.000354953 0.0611689 0.564313 -0.0294095 0.0130857 -0.578443 0.2269 0.0647404 -0.0550694 -0.148872 -0.313436 -0.46703 -0.592492 -0.998187 0.235255 0.327531
internal_weight=0 6971 6937 116 78 6821 122 48 74 6699 118 79 54 40 6581 957 146 811 772 62 94 710 417 361 252 212 174 64 293 251
internal_count=7008 6971 6937 116 78 6821 122 48 74 6699 118 79 54 40 6581 957 146 811 772 62 94 710 417 361 252 212 174 64 293 251
is_linear=0
shrinkage=0.1


Tree=33
num_leaves=31
num_cat=0
split_feature=11 11 4 9 1 11 4 11 4 18 18 11 1 10 18 11 11 9 13 8 0 18 2 1 2 11 11 3 4 11
split_gain=358.206 3676.73 5352.09 2213.66 1603.7 1513.23 2413.79 1951.8 1632.21 1741.95 2098.56 2131.27 1489.32 1473.8 1468.74 3747.49 1414.47 2541.76 1398.47 1203.98 1610.6 1122.55 2189.84 2965.96 2047.08 3070 2961.44 1644.7 2380.68 1463.09
threshold=-0.63255557784149707 -0.67166439702596292 5.5000000000000009 -0.37940952255126059 321.50000000000006 -0.48314718476766422 8.5000000000000018 -0.59869031648930193 10.500000000000002 -4.4999999999999991 -2.4999999999999996 -0.52766804058324157 227.50000000000003 1.0000000180025095e-35 -1.0000000180025095e-35 -0.55657520495441892 -0.56368474752277564 0.91597561503675362 1.0000000180025095e-35 1.0000000180025095e-35 9.5000000000000018 -4.4999999999999991 47.500000000000007 195.50000000000003 22.500000000000004 0.67802080537253961 0.59177612190863982 2.5000000000000004 17.500000000000004 0.98522604642031408
decision_type=2 2 2 2 2 2 2 2 2 2 2 2 2 2 2 2 2 2 2 2 2 2 2 2 2 2 2 2 2 2
left_child=1 4 -3 -4 12 6 7 -2 -8 -10 -11 14 13 -1 -12 -16 -9 18 -18 -14 -21 22 23 24 25 26 27 -7 -29 -27
right_child=5 2 3 -5 -6 21 8 16 9 10 11 -13 19 -15 15 -17 17 -19 -20 20 -22 -23 -24 -25 -26 29 -28 28 -30 -31
leaf_value=0.006744990348815919 1.1860951563891244 -1.7048972560513407 -0.67848311771046044 0.32461625710129738 0.84719708263874061 -0.16596797086574414 -0.60976065827740566 -0.20639971256256107 -0.52159040735827555 0.98958924758818856 -0.82260734558105464 0.6615822584732719 0.017312050451488339 -1.1927185069947015 0.45889022593056006 -1.0128046691417694 1.5115722026824951 -0.2082622540848596 0.46407145811961253 -0.8185616028614533 0.26768306209927512 -0.016740914799290504 -0.43853821851886238 1.3069009790420534 -0.36023071603528384 -0.14379836627892381 1.7742859992113982 1.6156147480010987 0.072668397128582002 0.59387062149388459
leaf_weight=20 34 31 44 44 22 27 36 35 36 31 25 46 1723 21 62 24 25 28 26 39 21 4260 52 25 58 116 22 20 20 35
leaf_count=20 34 31 44 44 22 27 36 35 36 31 25 46 1723 21 62 24 25 28 26 39 21 4260 52 25 58 116 22 20 20 35
internal_value=0 -0.0362187 -0.574974 -0.176933 -0.00148849 0.0141126 0.198743 0.521129 0.0152312 0.115676 0.237706 0.0892451 -0.0117248 -0.607614 -0.14794 0.0481847 0.322806 0.557264 0.977552 0.00197762 -0.438376 -0.00213969 0.16373 0.26069 0.17292 0.301765 0.767627 0.437083 0.844142 0.0271845
internal_weight=0 1965 119 88 1846 5043 408 148 260 224 188 157 1824 41 111 86 114 79 51 1783 60 4635 375 323 298 240 89 67 40 151
internal_count=7008 1965 119 88 1846 5043 408 148 260 224 188 157 1824 41 111 86 114 79 51 1783 60 4635 375 323 298 240 89 67 40 151
is_linear=0
shrinkage=0.1


Tree=34
num_leaves=31
num_cat=0
split_feature=11 10 1 11 13 15 3 1 1 18 4 18 4 11 11 9 3 9 13 1 19 11 11 18 10 18 1 9 3 10
split_gain=370.047 2013.81 1486.39 563.719 501.162 369.421 1432.03 2749.4 1596.13 885.451 1152.46 1211.05 1246.12 860.43 753.541 4630.95 4152.59 1767.03 1250.32 1175.83 1329.72 944.841 905.097 1792.96 1215.55 1111.34 3096.82 1078.71 1285.18 3171.18
threshold=-0.99815974739704505 0.1294095225512602 274.50000000000006 -0.99697703579879204 1.0000000180025095e-35 -0.6830127018922193 1.0000000180025095e-35 302.50000000000006 295.50000000000006 3.5000000000000004 20.500000000000004 -2.4999999999999996 13.500000000000002 -0.52766804058324157 -0.73282214301478099 0.78656609248549325 3.5000000000000004 0.25881904510252091 -0.8783796973249266 235.50000000000003 3.5000000000000004 -0.66528616069191593 -0.84772008488809492 1.0000000180025095e-35 0.60355339059327384 4.5000000000000009 261.50000000000006 0.91597561503675362 3.5000000000000004 0.91597561503675351
decision_type=2 2 2 2 2 2 2 2 2 2 2 2 2 2 2 2 2 2 2 2 2 2 2 2 2 2 2 2 2 2
left_child=1 2 -1 -2 -3 6 7 8 9 10 11 -5 -13 14 19 17 -17 18 -16 20 -8 -19 25 24 -24 27 -27 28 -21 -30
right_child=3 4 -4 5 -6 -7 13 -9 -10 -11 -12 12 -14 -15 15 16 -18 21 -20 22 -22 -23 23 -25 -26 26 -28 -29 29 -31
leaf_value=0.13483789089398507 -0.39777325234479377 -0.015013216706839475 1.0801815850981351 -0.11997269590695699 -0.61558386087417605 0.011731898530218748 0.58046951591968543 -0.93617322683334359 1.0966692360964687 -0.37075173457463584 -0.37903621455897457 0.3693243301615996 1.1853002252678075 0.38625242616000932 0.39268585806307588 1.4877516893240124 -0.26730390957423616 -1.4552800200202249 -0.40672834272148051 0.088063517514853501 -0.33941479975526989 -0.60923729809847749 -0.97566620859988906 0.32306902408599858 -0.098792222976684579 -1.2367246909388181 0.062210522174835206 0.52141119922910428 -0.28330907861188964 0.54113574524720509
leaf_weight=39 36 33 29 36 24 5261 55 20 22 24 23 85 24 38 23 26 28 22 131 369 22 33 43 26 25 29 50 35 343 54
leaf_count=39 36 33 29 36 24 5261 55 20 22 24 23 85 24 38 23 26 28 22 131 369 22 33 43 26 25 29 50 35 343 54
internal_value=0 0.170516 0.537999 -0.00309669 -0.267885 -0.00102156 -0.0433267 0.185078 0.289867 0.197421 0.278589 0.382902 0.548989 -0.0828582 -0.0964246 -0.247808 0.577723 -0.461103 -0.287335 -0.0585426 0.317645 -0.947654 -0.0882823 -0.38323 -0.653286 -0.0567765 -0.414614 -0.0214842 -0.0462901 -0.171168
internal_weight=0 125 68 6883 57 6847 1586 234 214 192 168 145 109 1352 1314 263 54 209 154 1051 77 55 974 94 68 880 79 801 766 397
internal_count=7008 125 68 6883 57 6847 1586 234 214 192 168 145 109 1352 1314 263 54 209 154 1051 77 55 974 94 68 880 79 801 766 397
is_linear=0
shrinkage=0.1


Tree=35
num_leaves=31
num_cat=0
split_feature=10 3 1 12 0 1 0 15 1 1 12 12 3 10 1 12 16 1 1 1 11 1 1 12 1 0 3 1 1 11
split_gain=327.622 1222.11 2473.18 1652.69 1919.79 1238.21 1968.79 1274.67 1326.07 1242.78 1176.63 2453.37 2001.55 1478.23 1086.99 1044.81 1049.55 939.579 1455.65 1605.59 1135.59 1150.26 1645.53 1253.76 1023.87 1418.15 1027.87 936.842 867.494 2306.09
threshold=-0.9159756150367534 4.5000000000000009 321.50000000000006 0.45847758937963173 1.5000000000000002 319.50000000000006 10.500000000000002 -0.93301270189221908 291.50000000000006 257.50000000000006 -0.88620506325989179 -0.67801649466304881 5.5000000000000009 -0.98296291314453399 352.50000000000006 -0.3744658827978154 1.0000000180025095e-35 236.50000000000003 225.50000000000003 205.50000000000003 -0.16799356919963607 179.50000000000003 166.50000000000003 -0.84313311835787952 134.50000000000003 4.5000000000000009 1.5000000000000002 278.50000000000006 72.500000000000014 0.96465729447553372
decision_type=2 2 2 2 2 2 2 2 2 2 2 2 2 2 2 2 2 2 2 2 2 2 2 2 2 2 2 2 2 2
left_child=1 5 3 10 -5 6 7 9 17 -1 12 -12 -3 -13 -7 -15 -17 18 19 20 -9 22 23 -22 25 26 -25 -19 -28 -30
right_child=-2 2 -4 4 -6 14 -8 8 -10 -11 11 13 -14 15 -16 16 -18 27 -20 -21 21 -23 -24 24 -26 -27 28 -29 29 -31
leaf_value=-1.0283214284026105 -0.0082838000653355729 0.48356503759111674 1.0219063448905945 0.39269599914550785 -0.85623458754271276 -0.62591170902763105 0.86778285768296992 -0.72019725322723394 -0.71632518280636193 -0.028005923579136532 1.3288479705651604 -0.31127475102742519 -0.91425318181514736 -0.10910570280892509 0.19060966605725496 1.2449317666617308 0.3064529107167171 0.93925296266873692 -0.78038157338187819 0.73097983528586008 0.63904216044089379 0.73802916381670081 -0.82868478569117476 -0.28397019685700886 -0.56674645193691908 0.80879938883463987 0.38701065808330498 0.035821619900790129 -0.98769409358501437 0.3896036467244548
leaf_weight=23 6111 21 35 20 32 56 27 20 22 27 24 36 20 21 23 22 26 24 21 34 34 23 22 86 29 23 73 22 20 31
leaf_count=23 6111 21 35 20 32 56 27 20 22 27 24 36 20 21 23 22 26 24 21 34 34 23 22 86 29 23 73 22 20 31
internal_value=0 0.0564351 0.240632 0.117458 -0.375877 -0.0175315 0.0346647 -0.00745928 0.042199 -0.488151 0.268361 0.416678 -0.198298 0.208183 -0.38819 0.479204 0.736589 0.0783192 0.0308974 0.0740287 0.0121551 0.0551084 0.00571471 0.0677309 -0.00640874 0.0633329 -0.0183135 0.507177 0.165932 -0.150513
internal_weight=0 897 257 222 52 640 561 534 484 50 170 129 41 105 79 69 48 462 416 395 361 341 318 296 262 233 210 46 124 51
internal_count=7008 897 257 222 52 640 561 534 484 50 170 129 41 105 79 69 48 462 416 395 361 341 318 296 262 233 210 46 124 51
is_linear=0
shrinkage=0.1


Tree=36
num_leaves=31
num_cat=0
split_feature=1 1 4 4 1 10 10 14 1 4 4 13 12 9 4 12 19 10 11 1 16 16 4 16 1 1 9 4 4 4
split_gain=332.234 1749.84 1416.41 652.379 530.728 1951.69 1067.46 2229.18 1177.8 1121.22 936.248 472.871 1389.62 5128.97 4314.51 2985.33 2693.08 3589.31 3863.06 2212.63 1828.99 2444.62 2710.6 1783.23 3040.01 1727.11 2107.88 1667.14 1649.12 1632.74
threshold=350.50000000000006 348.50000000000006 1.5000000000000002 3.5000000000000004 361.50000000000006 1.0000000180025095e-35 -0.12940952255126037 1.0000000180025095e-35 353.50000000000006 18.500000000000004 12.500000000000002 -0.8783796973249266 0.3484035575467645 0.37940952255126054 1.0000000180025095e-35 0.86869874770991873 2.5000000000000004 -0.9159756150367534 0.99274428880883148 110.50000000000001 -0.9330127018922193 -0.68301270189221952 4.5000000000000009 -0.24999999999999994 264.50000000000006 40.500000000000007 -0.91597561503675329 20.500000000000004 12.500000000000002 5.5000000000000009
decision_type=2 2 2 2 2 2 2 2 2 2 2 2 2 2 2 2 2 2 2 2 2 2 2 2 2 2 2 2 2 2
